{"learner": {"attributes": {}, "feature_names": [], "feature_types": [], "gradient_booster": {"model": {"gbtree_model_param": {"num_parallel_tree": "1", "num_trees": "201"}, "iteration_indptr": [0, 1, 2, 3, 4, 5, 6, 7, 8, 9, 10, 11, 12, 13, 14, 15, 16, 17, 18, 19, 20, 21, 22, 23, 24, 25, 26, 27, 28, 29, 30, 31, 32, 33, 34, 35, 36, 37, 38, 39, 40, 41, 42, 43, 44, 45, 46, 47, 48, 49, 50, 51, 52, 53, 54, 55, 56, 57, 58, 59, 60, 61, 62, 63, 64, 65, 66, 67, 68, 69, 70, 71, 72, 73, 74, 75, 76, 77, 78, 79, 80, 81, 82, 83, 84, 85, 86, 87, 88, 89, 90, 91, 92, 93, 94, 95, 96, 97, 98, 99, 100, 101, 102, 103, 104, 105, 106, 107, 108, 109, 110, 111, 112, 113, 114, 115, 116, 117, 118, 119, 120, 121, 122, 123, 124, 125, 126, 127, 128, 129, 130, 131, 132, 133, 134, 135, 136, 137, 138, 139, 140, 141, 142, 143, 144, 145, 146, 147, 148, 149, 150, 151, 152, 153, 154, 155, 156, 157, 158, 159, 160, 161, 162, 163, 164, 165, 166, 167, 168, 169, 170, 171, 172, 173, 174, 175, 176, 177, 178, 179, 180, 181, 182, 183, 184, 185, 186, 187, 188, 189, 190, 191, 192, 193, 194, 195, 196, 197, 198, 199, 200, 201], "tree_info": [0, 0, 0, 0, 0, 0, 0, 0, 0, 0, 0, 0, 0, 0, 0, 0, 0, 0, 0, 0, 0, 0, 0, 0, 0, 0, 0, 0, 0, 0, 0, 0, 0, 0, 0, 0, 0, 0, 0, 0, 0, 0, 0, 0, 0, 0, 0, 0, 0, 0, 0, 0, 0, 0, 0, 0, 0, 0, 0, 0, 0, 0, 0, 0, 0, 0, 0, 0, 0, 0, 0, 0, 0, 0, 0, 0, 0, 0, 0, 0, 0, 0, 0, 0, 0, 0, 0, 0, 0, 0, 0, 0, 0, 0, 0, 0, 0, 0, 0, 0, 0, 0, 0, 0, 0, 0, 0, 0, 0, 0, 0, 0, 0, 0, 0, 0, 0, 0, 0, 0, 0, 0, 0, 0, 0, 0, 0, 0, 0, 0, 0, 0, 0, 0, 0, 0, 0, 0, 0, 0, 0, 0, 0, 0, 0, 0, 0, 0, 0, 0, 0, 0, 0, 0, 0, 0, 0, 0, 0, 0, 0, 0, 0, 0, 0, 0, 0, 0, 0, 0, 0, 0, 0, 0, 0, 0, 0, 0, 0, 0, 0, 0, 0, 0, 0, 0, 0, 0, 0, 0, 0, 0, 0, 0, 0, 0, 0, 0, 0, 0, 0], "trees": [{"base_weights": [-0.031222055, 0.72851604, -0.6874456, 1.0938557, 0.14079106, -1.0231892, 0.10038335, 0.0515664, 1.3056706, -0.5911878, 1.0266343, -0.78749293, -1.667772, 0.71378094, -0.34101108, 0.79915076, -1.0887729, 1.3639166, -0.0475, 1.1080575, -1.0449754, -0.56378603, 1.2793713, -1.2420453, -0.31169355, -0.5970382, -1.8238324, -0.26334518, 1.2740077, -0.080000006, 0.008005825, 1.160987, -0.070739545, -0.073750004, -0.0, 1.4656706, 0.04426003, 0.0077170418, 0.0655282, -1.4011481, 0.077922076, -0.05333334, 0.0077170418, 1.5447676, -0.20538385, -1.3668004, 0.40268457, 0.41910112, -0.6945783, 0.03353752, -0.06769231, -0.01607445, -0.09447368, 0.049571183, -0.6754808, 1.5654807, -0.00839895, 0.45415938, -0.98477155, 0.0772093, -0.0, -0.05333334, 0.049571183, -0.024962178, 0.07647797, -0.043053962, 0.049239766, -0.081495225, 0.0010428738, 0.05460251, -0.047290117, -0.0, 0.08548673, -0.05333334, 0.03353752, 0.011410789, -0.07526643, -0.01607445, 0.049571183, 0.041566055, -0.047290117, -0.051344033, 0.019153802, 0.0038684723, -0.06769231, 0.020608576, 0.086630285, -0.061818182, 0.039823513, 0.0077170418, -0.065338925], "categories": [], "categories_nodes": [], "categories_segments": [], "categories_sizes": [], "default_left": [0, 0, 0, 0, 0, 0, 0, 0, 0, 0, 0, 0, 0, 0, 0, 0, 0, 0, 0, 0, 0, 0, 0, 0, 0, 0, 0, 0, 0, 0, 0, 0, 0, 0, 0, 0, 0, 0, 0, 0, 0, 0, 0, 0, 0, 0, 0, 0, 0, 0, 0, 0, 0, 0, 0, 0, 0, 0, 0, 0, 0, 0, 0, 0, 0, 0, 0, 0, 0, 0, 0, 0, 0, 0, 0, 0, 0, 0, 0, 0, 0, 0, 0, 0, 0, 0, 0, 0, 0, 0, 0], "id": 0, "left_children": [1, 3, 5, 7, 9, 11, 13, 15, 17, 19, 21, 23, 25, 27, 29, 31, 33, 35, -1, 37, 39, 41, 43, 45, 47, 49, 51, 53, 55, -1, 57, 59, 61, -1, -1, 63, 65, -1, -1, 67, 69, -1, -1, 71, 73, 75, 77, 79, 81, -1, -1, -1, -1, -1, 83, 85, -1, 87, 89, -1, -1, -1, -1, -1, -1, -1, -1, -1, -1, -1, -1, -1, -1, -1, -1, -1, -1, -1, -1, -1, -1, -1, -1, -1, -1, -1, -1, -1, -1, -1, -1], "loss_changes": [121.96859, 24.057129, 34.92875, 15.170593, 29.632473, 12.456802, 11.127132, 11.823155, 8.925003, 20.464798, 9.093283, 14.501785, 2.6280746, 9.842285, 10.6644535, 2.838491, 2.2165246, 7.4050217, 0.0, 0.7555475, 8.37182, 1.5095072, 7.6144466, 7.8555107, 10.23192, 5.372843, 1.1546936, 4.2709665, 5.092066, 0.0, 9.088288, 2.792529, 4.589907, 0.0, 0.0, 7.4684906, 5.257766, 0.0, 0.0, 5.254368, 7.043023, 0.0, 0.0, 4.07222, 3.4581416, 7.7493362, 1.7469977, 7.9283895, 8.950007, 0.0, 0.0, 0.0, 0.0, 0.0, 3.2674563, 0.8900986, 0.0, 9.213858, 2.6395755, 0.0, 0.0, 0.0, 0.0, 0.0, 0.0, 0.0, 0.0, 0.0, 0.0, 0.0, 0.0, 0.0, 0.0, 0.0, 0.0, 0.0, 0.0, 0.0, 0.0, 0.0, 0.0, 0.0, 0.0, 0.0, 0.0, 0.0, 0.0, 0.0, 0.0, 0.0, 0.0], "parents": [2147483647, 0, 0, 1, 1, 2, 2, 3, 3, 4, 4, 5, 5, 6, 6, 7, 7, 8, 8, 9, 9, 10, 10, 11, 11, 12, 12, 13, 13, 14, 14, 15, 15, 16, 16, 17, 17, 19, 19, 20, 20, 21, 21, 22, 22, 23, 23, 24, 24, 25, 25, 26, 26, 27, 27, 28, 28, 30, 30, 31, 31, 32, 32, 35, 35, 36, 36, 39, 39, 40, 40, 43, 43, 44, 44, 45, 45, 46, 46, 47, 47, 48, 48, 54, 54, 55, 55, 57, 57, 58, 58], "right_children": [2, 4, 6, 8, 10, 12, 14, 16, 18, 20, 22, 24, 26, 28, 30, 32, 34, 36, -1, 38, 40, 42, 44, 46, 48, 50, 52, 54, 56, -1, 58, 60, 62, -1, -1, 64, 66, -1, -1, 68, 70, -1, -1, 72, 74, 76, 78, 80, 82, -1, -1, -1, -1, -1, 84, 86, -1, 88, 90, -1, -1, -1, -1, -1, -1, -1, -1, -1, -1, -1, -1, -1, -1, -1, -1, -1, -1, -1, -1, -1, -1, -1, -1, -1, -1, -1, -1, -1, -1, -1, -1], "split_conditions": [-0.2749975, -0.48123774, 1.5740308, -0.8558664, 0.17933306, 1.0988557, 0.123857036, 0.71226394, 1.4020894, -0.6127351, -1.229402, -0.4989014, -0.6793855, -0.5135384, -0.4936589, -0.20179018, 0.08885023, 0.43568808, -0.0475, 1.6926614, 0.8519819, 0.56003183, 2.3233721, 2.87394, -0.69158924, -0.9028762, -3.0286415, -0.31176776, 1.1442282, -0.080000006, 1.0064688, -0.005043044, -0.69831276, -0.073750004, -0.0, -1.8147984, -0.36120012, 0.0077170418, 0.0655282, 1.0401995, 0.093954764, -0.05333334, 0.0077170418, -0.82603455, 0.057164542, -0.79709804, 2.729234, -0.058397073, 2.2306979, 0.03353752, -0.06769231, -0.01607445, -0.09447368, 0.049571183, -0.3498246, -0.89916813, -0.00839895, -0.24869484, -1.1038795, 0.0772093, -0.0, -0.05333334, 0.049571183, -0.024962178, 0.07647797, -0.043053962, 0.049239766, -0.081495225, 0.0010428738, 0.05460251, -0.047290117, -0.0, 0.08548673, -0.05333334, 0.03353752, 0.011410789, -0.07526643, -0.01607445, 0.049571183, 0.041566055, -0.047290117, -0.051344033, 0.019153802, 0.0038684723, -0.06769231, 0.020608576, 0.086630285, -0.061818182, 0.039823513, 0.0077170418, -0.065338925], "split_indices": [166, 139, 58, 118, 186, 134, 153, 135, 198, 124, 119, 177, 149, 124, 124, 116, 140, 183, 0, 90, 123, 115, 51, 230, 186, 114, 115, 190, 122, 0, 152, 191, 117, 0, 0, 116, 117, 0, 0, 182, 168, 0, 0, 114, 116, 117, 30, 138, 243, 0, 0, 0, 0, 0, 122, 116, 0, 132, 123, 0, 0, 0, 0, 0, 0, 0, 0, 0, 0, 0, 0, 0, 0, 0, 0, 0, 0, 0, 0, 0, 0, 0, 0, 0, 0, 0, 0, 0, 0, 0, 0], "split_type": [0, 0, 0, 0, 0, 0, 0, 0, 0, 0, 0, 0, 0, 0, 0, 0, 0, 0, 0, 0, 0, 0, 0, 0, 0, 0, 0, 0, 0, 0, 0, 0, 0, 0, 0, 0, 0, 0, 0, 0, 0, 0, 0, 0, 0, 0, 0, 0, 0, 0, 0, 0, 0, 0, 0, 0, 0, 0, 0, 0, 0, 0, 0, 0, 0, 0, 0, 0, 0, 0, 0, 0, 0, 0, 0, 0, 0, 0, 0, 0, 0, 0, 0, 0, 0, 0, 0, 0, 0, 0, 0], "sum_hessian": [242.64642, 112.332146, 130.31429, 68.63571, 43.69643, 91.25357, 39.060715, 11.882143, 56.75357, 24.046429, 19.65, 68.560715, 22.692858, 16.182142, 22.87857, 7.410714, 4.4714284, 55.75357, 1.0, 4.7178574, 19.328571, 2.4714286, 17.178572, 34.13214, 34.42857, 3.5821428, 19.110714, 6.025, 10.157143, 4.25, 18.62857, 5.0785713, 2.3321428, 3.0, 1.4714286, 51.589287, 4.1642857, 1.2214286, 3.4964285, 14.553572, 4.775, 1.25, 1.2214286, 14.596429, 2.5821428, 31.939285, 2.1928573, 11.714286, 22.714285, 1.3321428, 2.25, 1.1107143, 18.0, 1.0821428, 4.9428573, 8.435715, 1.7214286, 13.296429, 5.332143, 3.607143, 1.4714286, 1.25, 1.0821428, 1.3607143, 50.228573, 2.1107142, 2.0535715, 12.471429, 2.0821428, 2.4142857, 2.3607142, 1.4714286, 13.125, 1.25, 1.3321428, 2.4428573, 29.49643, 1.1107143, 1.0821428, 9.353572, 2.3607142, 17.467857, 5.2464285, 2.6928573, 2.25, 1.5821428, 6.8535714, 1.75, 11.546429, 1.2214286, 4.1107144], "tree_param": {"num_deleted": "0", "num_feature": "246", "num_nodes": "91", "size_leaf_vector": "1"}}, {"base_weights": [0.003397156, 0.47126567, -0.7582376, -0.1321723, 0.7969091, -0.3830461, -1.4351996, -0.87854975, 0.37002242, 1.1663837, 0.26167086, -0.6738804, 1.0358889, -1.5523139, 0.034066495, -1.0680102, 0.04077718, -0.77059513, 0.77666545, -0.45693594, 1.26963, -0.86822915, 0.59457535, 0.61758107, -0.9524373, -0.041502815, 0.080540545, -0.5042552, -1.7469349, -0.16364753, -1.5624013, 0.1391815, -0.07653429, -0.5823237, 1.0440643, 0.032063004, -0.062914126, 1.3583524, -0.0, -0.0058601904, -0.0786544, -0.6156677, 0.88652, -0.43885547, 1.2064759, -1.4705962, -0.14019607, -0.06588007, 0.24752775, -0.62651575, -0.09245142, -0.043424256, 0.052945316, -0.08805703, -0.014165199, -0.053147, 0.043337174, -0.06602278, 0.032651216, 0.0627745, -0.023250958, 0.070922084, -0.00879512, -0.061524775, 0.06124401, 0.03735326, -0.041781794, 0.048236083, -0.076182455, 0.05235098, -0.038564473, 0.031582125, -0.061159868, 0.07913372, -0.0, -0.014913673, -0.08530804, -0.029495282, 0.04535995, 0.055920918, -0.031210778, 0.008452493, -0.05614087], "categories": [], "categories_nodes": [], "categories_segments": [], "categories_sizes": [], "default_left": [0, 0, 0, 0, 0, 0, 0, 0, 0, 0, 0, 0, 0, 0, 0, 0, 0, 0, 0, 0, 0, 0, 0, 0, 0, 0, 0, 0, 0, 0, 0, 0, 0, 0, 0, 0, 0, 0, 0, 0, 0, 0, 0, 0, 0, 0, 0, 0, 0, 0, 0, 0, 0, 0, 0, 0, 0, 0, 0, 0, 0, 0, 0, 0, 0, 0, 0, 0, 0, 0, 0, 0, 0, 0, 0, 0, 0, 0, 0, 0, 0, 0, 0], "id": 1, "left_children": [1, 3, 5, 7, 9, 11, 13, 15, 17, 19, 21, 23, 25, 27, -1, 29, -1, 31, 33, 35, 37, 39, 41, 43, 45, -1, -1, 47, 49, 51, 53, 55, -1, 57, 59, -1, -1, 61, 63, 65, -1, 67, 69, 71, 73, 75, 77, -1, 79, 81, -1, -1, -1, -1, -1, -1, -1, -1, -1, -1, -1, -1, -1, -1, -1, -1, -1, -1, -1, -1, -1, -1, -1, -1, -1, -1, -1, -1, -1, -1, -1, -1, -1], "loss_changes": [85.451546, 29.387196, 22.43317, 20.189514, 18.697632, 25.480064, 9.092491, 7.841196, 15.5448265, 10.193993, 15.887463, 18.815573, 12.749543, 5.162529, 0.0, 8.490368, 0.0, 6.510784, 9.490713, 4.4578695, 5.992378, 5.7014494, 11.979205, 6.5264044, 17.33384, 0.0, 0.0, 4.2849326, 1.5031815, 8.0000925, 2.527197, 5.1965637, 0.0, 5.1039066, 7.279646, 0.0, 0.0, 5.006172, 8.365568, 4.0128984, 0.0, 11.280161, 7.8822556, 4.2561855, 3.0696697, 6.331871, 8.775197, 0.0, 3.82343, 1.7532855, 0.0, 0.0, 0.0, 0.0, 0.0, 0.0, 0.0, 0.0, 0.0, 0.0, 0.0, 0.0, 0.0, 0.0, 0.0, 0.0, 0.0, 0.0, 0.0, 0.0, 0.0, 0.0, 0.0, 0.0, 0.0, 0.0, 0.0, 0.0, 0.0, 0.0, 0.0, 0.0, 0.0], "parents": [2147483647, 0, 0, 1, 1, 2, 2, 3, 3, 4, 4, 5, 5, 6, 6, 7, 7, 8, 8, 9, 9, 10, 10, 11, 11, 12, 12, 13, 13, 15, 15, 17, 17, 18, 18, 19, 19, 20, 20, 21, 21, 22, 22, 23, 23, 24, 24, 27, 27, 28, 28, 29, 29, 30, 30, 31, 31, 33, 33, 34, 34, 37, 37, 38, 38, 39, 39, 41, 41, 42, 42, 43, 43, 44, 44, 45, 45, 46, 46, 48, 48, 49, 49], "right_children": [2, 4, 6, 8, 10, 12, 14, 16, 18, 20, 22, 24, 26, 28, -1, 30, -1, 32, 34, 36, 38, 40, 42, 44, 46, -1, -1, 48, 50, 52, 54, 56, -1, 58, 60, -1, -1, 62, 64, 66, -1, 68, 70, 72, 74, 76, 78, -1, 80, 82, -1, -1, -1, -1, -1, -1, -1, -1, -1, -1, -1, -1, -1, -1, -1, -1, -1, -1, -1, -1, -1, -1, -1, -1, -1, -1, -1, -1, -1, -1, -1, -1, -1], "split_conditions": [0.06356527, -0.44550532, 0.74671304, -0.80720246, -0.49223226, 1.0182179, 2.7418349, 0.33516693, -0.104391165, -0.93462193, -1.0386516, -0.9966401, 0.26510432, -0.6793855, 0.034066495, -1.0288217, 0.04077718, -0.18339306, -0.44197297, 0.60126233, 0.84848946, -0.19435816, -0.53791314, -0.4015652, -0.4075732, -0.041502815, 0.080540545, -0.26835915, -2.691405, -0.012616057, 1.5538687, -0.38960323, -0.07653429, -0.37148085, 0.40113497, 0.032063004, -0.062914126, 2.5964305, -0.19223003, 0.061667684, -0.0786544, -0.57044345, 1.1496766, -0.5062678, 0.08308087, -0.25746927, 0.6077581, -0.06588007, -1.7535588, 1.0544101, -0.09245142, -0.043424256, 0.052945316, -0.08805703, -0.014165199, -0.053147, 0.043337174, -0.06602278, 0.032651216, 0.0627745, -0.023250958, 0.070922084, -0.00879512, -0.061524775, 0.06124401, 0.03735326, -0.041781794, 0.048236083, -0.076182455, 0.05235098, -0.038564473, 0.031582125, -0.061159868, 0.07913372, -0.0, -0.014913673, -0.08530804, -0.029495282, 0.04535995, 0.055920918, -0.031210778, 0.008452493, -0.05614087], "split_indices": [172, 149, 134, 160, 139, 163, 191, 190, 135, 128, 121, 120, 128, 149, 0, 212, 0, 172, 204, 135, 113, 176, 132, 176, 181, 0, 0, 182, 115, 145, 84, 172, 0, 117, 176, 0, 0, 207, 137, 120, 0, 113, 151, 124, 137, 113, 124, 0, 135, 113, 0, 0, 0, 0, 0, 0, 0, 0, 0, 0, 0, 0, 0, 0, 0, 0, 0, 0, 0, 0, 0, 0, 0, 0, 0, 0, 0, 0, 0, 0, 0, 0, 0], "split_type": [0, 0, 0, 0, 0, 0, 0, 0, 0, 0, 0, 0, 0, 0, 0, 0, 0, 0, 0, 0, 0, 0, 0, 0, 0, 0, 0, 0, 0, 0, 0, 0, 0, 0, 0, 0, 0, 0, 0, 0, 0, 0, 0, 0, 0, 0, 0, 0, 0, 0, 0, 0, 0, 0, 0, 0, 0, 0, 0, 0, 0, 0, 0, 0, 0, 0, 0, 0, 0, 0, 0, 0, 0, 0, 0, 0, 0, 0, 0, 0, 0, 0, 0], "sum_hessian": [237.87785, 147.6746, 90.20325, 51.860615, 95.81399, 59.13983, 31.06342, 20.63779, 31.222824, 55.87647, 39.937523, 49.574306, 9.565522, 29.73207, 1.3313472, 18.947392, 1.6904008, 7.9059677, 23.316856, 3.0785637, 52.797905, 8.654647, 31.282875, 8.515979, 41.05833, 2.1075685, 7.457954, 5.2993226, 24.432749, 7.2389164, 11.708474, 3.9105873, 3.9953804, 3.5784667, 19.73839, 1.3303641, 1.7481996, 49.247353, 3.5505538, 4.4097123, 4.244934, 5.7976418, 25.485233, 3.0784402, 5.437538, 24.497076, 16.561255, 2.2478158, 3.0515068, 2.7182014, 21.714548, 4.827267, 2.411649, 9.740072, 1.9684023, 1.2488143, 2.661773, 2.2475748, 1.3308918, 17.518343, 2.2200465, 47.52663, 1.72072, 1.7486403, 1.8019134, 2.300992, 2.1087203, 2.0525117, 3.7451298, 23.626596, 1.8586382, 1.3301681, 1.7482721, 3.9663672, 1.4711709, 4.5489993, 19.948076, 11.95886, 4.6023936, 1.4423314, 1.6091754, 1.2201715, 1.4980301], "tree_param": {"num_deleted": "0", "num_feature": "246", "num_nodes": "83", "size_leaf_vector": "1"}}, {"base_weights": [0.0004152364, 0.4827749, -0.8292132, -0.47705334, 0.6998365, -1.0769445, -0.08139356, -0.9972697, 0.48594704, 1.1310337, 0.20190102, -1.3624848, -0.24242473, -1.2043815, 0.5626263, 0.20624876, -1.4667819, 0.069331326, -0.30761218, 1.2113881, -0.057024915, 0.7032226, -0.31821582, -1.4904265, -0.16245826, -0.7270268, 0.07478347, 0.00847357, -1.460567, 1.067663, -0.6522457, 0.80166006, -0.03604762, -1.6369365, 0.00566148, -0.054334234, 0.7242691, -0.048315622, 1.3540732, 0.20589739, 1.2301359, 0.17505999, -1.2185179, 0.00090235745, -1.567874, 0.06326137, -0.0560611, -1.1294873, 0.56141204, -0.07990294, -0.014805115, 1.4853514, -0.02049935, 0.034649115, -0.067127205, 0.010244377, 0.05621786, -0.08692516, -0.012979931, 0.006654347, 0.047920465, -0.05487069, 0.04074907, 0.071890555, 0.010978992, -0.036478218, 0.028294725, 0.07840679, -0.010619327, -0.047055196, 0.050854474, -0.010814421, -0.08250827, 0.008930202, -0.08134835, 0.020085223, -0.07079461, 0.06217398, -0.022268297, 0.005603952, 0.08359026], "categories": [], "categories_nodes": [], "categories_segments": [], "categories_sizes": [], "default_left": [0, 0, 0, 0, 0, 0, 0, 0, 0, 0, 0, 0, 0, 0, 0, 0, 0, 0, 0, 0, 0, 0, 0, 0, 0, 0, 0, 0, 0, 0, 0, 0, 0, 0, 0, 0, 0, 0, 0, 0, 0, 0, 0, 0, 0, 0, 0, 0, 0, 0, 0, 0, 0, 0, 0, 0, 0, 0, 0, 0, 0, 0, 0, 0, 0, 0, 0, 0, 0, 0, 0, 0, 0, 0, 0, 0, 0, 0, 0, 0, 0], "id": 2, "left_children": [1, 3, 5, 7, 9, 11, 13, 15, 17, 19, 21, 23, 25, 27, 29, 31, 33, -1, 35, 37, -1, 39, 41, 43, 45, 47, -1, -1, 49, 51, 53, 55, -1, 57, -1, -1, 59, 61, 63, 65, 67, 69, 71, -1, 73, -1, -1, 75, 77, -1, -1, 79, -1, -1, -1, -1, -1, -1, -1, -1, -1, -1, -1, -1, -1, -1, -1, -1, -1, -1, -1, -1, -1, -1, -1, -1, -1, -1, -1, -1, -1], "loss_changes": [96.06002, 32.007416, 16.137905, 14.828022, 26.34607, 15.254593, 17.471409, 11.118565, 8.118698, 13.497147, 15.660059, 7.1043396, 16.298723, 3.4759588, 10.141293, 3.9680111, 4.0456657, 0.0, 5.9686813, 11.807045, 0.0, 7.5901012, 13.45125, 5.325371, 9.495748, 8.42318, 0.0, 0.0, 0.5521393, 7.668043, 5.6968517, 0.45894527, 0.0, 1.1077309, 0.0, 0.0, 0.21985006, 7.6851687, 5.0410843, 6.1142235, 7.538759, 19.675459, 4.0703917, 0.0, 4.7637863, 0.0, 0.0, 5.8245573, 3.4888718, 0.0, 0.0, 1.9515095, 0.0, 0.0, 0.0, 0.0, 0.0, 0.0, 0.0, 0.0, 0.0, 0.0, 0.0, 0.0, 0.0, 0.0, 0.0, 0.0, 0.0, 0.0, 0.0, 0.0, 0.0, 0.0, 0.0, 0.0, 0.0, 0.0, 0.0, 0.0, 0.0], "parents": [2147483647, 0, 0, 1, 1, 2, 2, 3, 3, 4, 4, 5, 5, 6, 6, 7, 7, 8, 8, 9, 9, 10, 10, 11, 11, 12, 12, 13, 13, 14, 14, 15, 15, 16, 16, 18, 18, 19, 19, 21, 21, 22, 22, 23, 23, 24, 24, 25, 25, 28, 28, 29, 29, 30, 30, 31, 31, 33, 33, 36, 36, 37, 37, 38, 38, 39, 39, 40, 40, 41, 41, 42, 42, 44, 44, 47, 47, 48, 48, 51, 51], "right_children": [2, 4, 6, 8, 10, 12, 14, 16, 18, 20, 22, 24, 26, 28, 30, 32, 34, -1, 36, 38, -1, 40, 42, 44, 46, 48, -1, -1, 50, 52, 54, 56, -1, 58, -1, -1, 60, 62, 64, 66, 68, 70, 72, -1, 74, -1, -1, 76, 78, -1, -1, 80, -1, -1, -1, -1, -1, -1, -1, -1, -1, -1, -1, -1, -1, -1, -1, -1, -1, -1, -1, -1, -1, -1, -1, -1, -1, -1, -1, -1, -1], "split_conditions": [0.06356527, -0.93462193, 0.054587588, -0.76377857, -0.49223226, 2.4747372, 0.1214535, -0.5238461, 0.11754799, 1.8317297, -0.49704272, 2.303322, -0.17136444, -0.9242783, -0.3798262, -0.29229927, 1.6170294, 0.069331326, 0.19283868, -0.8465721, -0.057024915, 0.52475363, 0.3571391, -1.0945953, 0.743073, 1.9575385, 0.07478347, 0.00847357, 0.995254, 2.1139724, 0.50826937, -0.36608455, -0.03604762, 0.5502693, 0.00566148, -0.054334234, 1.1455482, 0.88924736, 1.7902799, -0.45427936, -0.3676474, -0.32699335, -0.53308606, 0.00090235745, -1.191781, 0.06326137, -0.0560611, -0.5907838, 0.28113255, -0.07990294, -0.014805115, -0.61137414, -0.02049935, 0.034649115, -0.067127205, 0.010244377, 0.05621786, -0.08692516, -0.012979931, 0.006654347, 0.047920465, -0.05487069, 0.04074907, 0.071890555, 0.010978992, -0.036478218, 0.028294725, 0.07840679, -0.010619327, -0.047055196, 0.050854474, -0.010814421, -0.08250827, 0.008930202, -0.08134835, 0.020085223, -0.07079461, 0.06217398, -0.022268297, 0.005603952, 0.08359026], "split_indices": [172, 128, 129, 134, 139, 50, 128, 124, 115, 119, 119, 167, 114, 122, 117, 191, 122, 0, 129, 130, 0, 131, 151, 120, 118, 174, 0, 0, 133, 43, 194, 191, 0, 147, 0, 0, 96, 102, 171, 182, 130, 190, 172, 0, 131, 0, 0, 187, 117, 0, 0, 117, 0, 0, 0, 0, 0, 0, 0, 0, 0, 0, 0, 0, 0, 0, 0, 0, 0, 0, 0, 0, 0, 0, 0, 0, 0, 0, 0, 0, 0], "split_type": [0, 0, 0, 0, 0, 0, 0, 0, 0, 0, 0, 0, 0, 0, 0, 0, 0, 0, 0, 0, 0, 0, 0, 0, 0, 0, 0, 0, 0, 0, 0, 0, 0, 0, 0, 0, 0, 0, 0, 0, 0, 0, 0, 0, 0, 0, 0, 0, 0, 0, 0, 0, 0, 0, 0, 0, 0, 0, 0, 0, 0, 0, 0, 0, 0, 0, 0, 0, 0, 0, 0, 0, 0, 0, 0, 0, 0, 0, 0, 0, 0], "sum_hessian": [238.12866, 150.91994, 87.208725, 27.529274, 123.390656, 65.076805, 22.13192, 17.918104, 9.61117, 65.3378, 58.052856, 47.925922, 17.15088, 7.8058705, 14.32605, 5.1260457, 12.792059, 4.2107205, 5.4004498, 63.598755, 1.7390442, 29.479177, 28.573679, 43.014565, 4.9113593, 13.911444, 3.2394378, 1.2186617, 6.5872087, 10.26306, 4.062989, 3.2696545, 1.8563914, 11.573001, 1.2190578, 3.102133, 2.2983167, 6.466796, 57.131958, 15.978487, 13.5006895, 18.908298, 9.665381, 2.0749872, 40.93958, 1.8028331, 3.1085262, 10.753448, 3.1579962, 5.4817343, 1.1054748, 8.050017, 2.2130425, 1.3274165, 2.735573, 1.830069, 1.4395854, 10.466374, 1.1066259, 1.2181367, 1.0801799, 2.8491228, 3.617673, 52.873795, 4.258165, 4.077815, 11.900672, 10.923443, 2.5772467, 8.028968, 10.879331, 3.4312382, 6.2341437, 1.218302, 39.721275, 1.5760055, 9.177442, 1.8016446, 1.3563516, 1.217834, 6.8321834], "tree_param": {"num_deleted": "0", "num_feature": "246", "num_nodes": "81", "size_leaf_vector": "1"}}, {"base_weights": [0.010163016, 0.42351872, -0.8486518, -0.054084487, 0.81863034, -0.3979548, -1.4371643, -0.7759859, 0.33820778, 1.1007671, 0.039832257, -0.6639911, 0.8176572, -1.5419852, 0.004539198, 0.5513485, -1.1325195, 1.3749337, 0.028980616, 1.2539592, -0.3072747, -0.8966139, 0.4286608, 0.061134387, -0.8667151, -0.020697957, 1.3140965, 0.0066767656, -1.6154547, 1.0546447, -0.017295683, -1.2836798, 0.022423549, 0.07956033, -0.01411043, -0.35170308, 1.0219522, 1.3557639, 0.038437236, -0.9954256, 0.04685035, -1.362554, 0.04797802, 1.071087, -0.2289475, -1.3008475, -0.19655657, 0.006717009, 0.07701167, -0.011487526, -1.6981101, 0.06627122, 0.0073712054, -0.075305946, 0.0045643686, -0.033468157, 0.041701633, 0.067212, -0.014831466, -0.00558761, 0.07206976, 0.050473537, -0.046421077, -0.07152646, 0.009546998, -0.013354768, -0.07580417, 0.0798658, -0.022606788, -0.02974962, 0.054982007, -0.076182105, 0.01390425, -0.05089243, 0.025954207, -0.08705917, -0.013951835], "categories": [], "categories_nodes": [], "categories_segments": [], "categories_sizes": [], "default_left": [0, 0, 0, 0, 0, 0, 0, 0, 0, 0, 0, 0, 0, 0, 0, 0, 0, 0, 0, 0, 0, 0, 0, 0, 0, 0, 0, 0, 0, 0, 0, 0, 0, 0, 0, 0, 0, 0, 0, 0, 0, 0, 0, 0, 0, 0, 0, 0, 0, 0, 0, 0, 0, 0, 0, 0, 0, 0, 0, 0, 0, 0, 0, 0, 0, 0, 0, 0, 0, 0, 0, 0, 0, 0, 0, 0, 0], "id": 3, "left_children": [1, 3, 5, 7, 9, 11, 13, 15, 17, 19, 21, 23, 25, 27, -1, 29, 31, 33, 35, 37, 39, 41, 43, -1, 45, -1, 47, -1, 49, 51, -1, 53, -1, -1, -1, 55, 57, 59, 61, 63, -1, 65, -1, 67, 69, 71, 73, -1, -1, -1, 75, -1, -1, -1, -1, -1, -1, -1, -1, -1, -1, -1, -1, -1, -1, -1, -1, -1, -1, -1, -1, -1, -1, -1, -1, -1, -1], "loss_changes": [86.903625, 31.333443, 20.332703, 21.74643, 19.77039, 15.566742, 5.7308655, 13.483191, 15.739607, 14.812172, 9.531738, 15.853909, 5.9720902, 4.295189, 0.0, 3.2989426, 5.847208, 4.634508, 15.299484, 7.256241, 7.153984, 7.969511, 8.184853, 0.0, 9.96483, 0.0, 1.3650417, 0.0, 2.9365082, 0.733377, 0.0, 6.4359016, 0.0, 0.0, 0.0, 11.507531, 5.277027, 7.2596054, 6.3496737, 3.0867553, 0.0, 0.5227976, 0.0, 8.578808, 5.435682, 8.063217, 9.559909, 0.0, 0.0, 0.0, 1.0708923, 0.0, 0.0, 0.0, 0.0, 0.0, 0.0, 0.0, 0.0, 0.0, 0.0, 0.0, 0.0, 0.0, 0.0, 0.0, 0.0, 0.0, 0.0, 0.0, 0.0, 0.0, 0.0, 0.0, 0.0, 0.0, 0.0], "parents": [2147483647, 0, 0, 1, 1, 2, 2, 3, 3, 4, 4, 5, 5, 6, 6, 7, 7, 8, 8, 9, 9, 10, 10, 11, 11, 12, 12, 13, 13, 15, 15, 16, 16, 17, 17, 18, 18, 19, 19, 20, 20, 21, 21, 22, 22, 24, 24, 26, 26, 28, 28, 29, 29, 31, 31, 35, 35, 36, 36, 37, 37, 38, 38, 39, 39, 41, 41, 43, 43, 44, 44, 45, 45, 46, 46, 50, 50], "right_children": [2, 4, 6, 8, 10, 12, 14, 16, 18, 20, 22, 24, 26, 28, -1, 30, 32, 34, 36, 38, 40, 42, 44, -1, 46, -1, 48, -1, 50, 52, -1, 54, -1, -1, -1, 56, 58, 60, 62, 64, -1, 66, -1, 68, 70, 72, 74, -1, -1, -1, 76, -1, -1, -1, -1, -1, -1, -1, -1, -1, -1, -1, -1, -1, -1, -1, -1, -1, -1, -1, -1, -1, -1, -1, -1, -1, -1], "split_conditions": [0.22803952, -0.094050534, 0.15323567, -0.7646051, -0.19714175, 3.784915, 1.3930835, -0.52402025, -0.30653155, 2.1086206, -1.2008673, -0.90861654, -0.8253534, -0.42628965, 0.004539198, -0.39571753, -0.071495816, 0.2668344, 0.957804, 0.23076557, -0.5062215, 1.2712214, 0.02450215, 0.061134387, -0.35267097, -0.020697957, -0.11528292, 0.0066767656, -1.8911992, -1.7610627, -0.017295683, 0.9021324, 0.022423549, 0.07956033, -0.01411043, 0.7365424, 0.8495859, -1.9430088, 0.19878432, 1.1956998, 0.04685035, -0.2949109, 0.04797802, 1.0698808, -0.080272146, 1.0453777, 0.20261829, 0.006717009, 0.07701167, -0.011487526, 3.6356087, 0.06627122, 0.0073712054, -0.075305946, 0.0045643686, -0.033468157, 0.041701633, 0.067212, -0.014831466, -0.00558761, 0.07206976, 0.050473537, -0.046421077, -0.07152646, 0.009546998, -0.013354768, -0.07580417, 0.0798658, -0.022606788, -0.02974962, 0.054982007, -0.076182105, 0.01390425, -0.05089243, 0.025954207, -0.08705917, -0.013951835], "split_indices": [172, 212, 189, 134, 183, 22, 128, 124, 116, 54, 122, 113, 120, 119, 0, 178, 185, 205, 129, 159, 124, 177, 123, 0, 160, 0, 185, 0, 129, 128, 0, 123, 0, 0, 0, 120, 141, 119, 120, 116, 0, 167, 0, 167, 138, 178, 139, 0, 0, 0, 140, 0, 0, 0, 0, 0, 0, 0, 0, 0, 0, 0, 0, 0, 0, 0, 0, 0, 0, 0, 0, 0, 0, 0, 0, 0, 0], "split_type": [0, 0, 0, 0, 0, 0, 0, 0, 0, 0, 0, 0, 0, 0, 0, 0, 0, 0, 0, 0, 0, 0, 0, 0, 0, 0, 0, 0, 0, 0, 0, 0, 0, 0, 0, 0, 0, 0, 0, 0, 0, 0, 0, 0, 0, 0, 0, 0, 0, 0, 0, 0, 0, 0, 0, 0, 0, 0, 0, 0, 0, 0, 0, 0, 0, 0, 0, 0, 0, 0, 0, 0, 0, 0, 0, 0, 0], "sum_hessian": [242.909, 164.4034, 78.505615, 74.70793, 89.69546, 45.50382, 33.001793, 26.049017, 48.658913, 65.44481, 24.250648, 37.773205, 7.7306104, 30.935785, 2.0660083, 5.3404036, 20.708612, 10.313101, 38.34581, 59.185955, 6.2588563, 6.6564, 17.594248, 3.1289184, 34.644287, 2.210727, 5.519883, 1.2079959, 29.72779, 3.3803375, 1.9600663, 19.130798, 1.5778141, 9.211099, 1.1020024, 28.112999, 10.232812, 54.429615, 4.7563415, 4.2105665, 2.0482893, 5.5764093, 1.0799912, 8.658728, 8.93552, 20.362818, 14.28147, 1.2154022, 4.304481, 1.9542665, 27.773523, 2.1634183, 1.2169191, 16.447332, 2.6834676, 22.58285, 5.53015, 8.268263, 1.9645491, 2.9197147, 51.5099, 2.4026613, 2.3536804, 2.991798, 1.2187688, 1.1023061, 4.474103, 6.4481044, 2.2106235, 7.4973288, 1.4381915, 17.93102, 2.4317968, 6.5183034, 7.7631674, 26.666653, 1.1068711], "tree_param": {"num_deleted": "0", "num_feature": "246", "num_nodes": "77", "size_leaf_vector": "1"}}, {"base_weights": [0.015442138, 0.3996938, -0.7819986, 0.6222153, -0.3414521, -0.38984808, -1.2528944, 0.07752637, 0.8518427, -0.58971226, 1.0643129, -0.6945959, 0.5303252, 0.04803293, -1.3543109, 0.40000805, -1.097503, 0.9884348, -0.053337175, -1.1031272, -0.20712784, -0.015463834, 0.0726919, -0.8863278, 0.92385167, 1.1876214, -0.7709502, -1.421017, 0.009961746, 1.0936298, 0.04474442, 0.009436657, -1.351405, 0.23036404, 1.1928633, -1.1360625, 0.45960626, -1.326349, -0.0, -0.5603214, 0.5813195, -1.177313, 0.027360959, 0.0067147547, 0.05911879, -0.0060307113, 0.07863644, -0.060107745, 0.008242735, -1.4848814, -0.012166059, 0.073547184, -0.0057645827, 0.025631491, -0.045482643, -0.0117189465, -0.074755214, -0.008668543, 0.059154313, -0.0037265755, 0.06477643, -0.06559738, -0.01391159, -0.01508002, 0.06092701, -0.07661665, 0.009145984, -0.012832165, 0.012368939, -0.04193847, 0.026010904, 0.05714898, -0.049722817, -0.06820833, 0.014200248, -0.039602775, 0.039472662, -0.013679558, -0.077724785], "categories": [], "categories_nodes": [], "categories_segments": [], "categories_sizes": [], "default_left": [0, 0, 0, 0, 0, 0, 0, 0, 0, 0, 0, 0, 0, 0, 0, 0, 0, 0, 0, 0, 0, 0, 0, 0, 0, 0, 0, 0, 0, 0, 0, 0, 0, 0, 0, 0, 0, 0, 0, 0, 0, 0, 0, 0, 0, 0, 0, 0, 0, 0, 0, 0, 0, 0, 0, 0, 0, 0, 0, 0, 0, 0, 0, 0, 0, 0, 0, 0, 0, 0, 0, 0, 0, 0, 0, 0, 0, 0, 0], "id": 4, "left_children": [1, 3, 5, 7, 9, 11, 13, 15, 17, 19, 21, 23, 25, -1, 27, 29, 31, 33, 35, 37, 39, -1, -1, 41, 43, 45, 47, 49, -1, 51, 53, -1, 55, 57, 59, 61, 63, 65, 67, 69, 71, 73, 75, -1, -1, -1, -1, -1, -1, 77, -1, -1, -1, -1, -1, -1, -1, -1, -1, -1, -1, -1, -1, -1, -1, -1, -1, -1, -1, -1, -1, -1, -1, -1, -1, -1, -1, -1, -1], "loss_changes": [73.73089, 27.043648, 13.78891, 15.5318985, 13.866374, 12.790106, 9.190273, 14.932294, 11.028904, 6.134218, 3.7798076, 11.2869835, 10.786151, 0.0, 3.9177322, 7.4653316, 3.1395874, 11.457611, 7.472795, 3.401373, 5.972826, 0.0, 0.0, 8.3195095, 0.5278218, 4.4054966, 2.0821896, 1.9240646, 0.0, 5.0248365, 10.076052, 0.0, 0.64304066, 7.0827847, 8.026657, 0.12997246, 5.692477, 3.9782753, 0.27372307, 4.8630657, 7.0629573, 6.8900757, 5.819965, 0.0, 0.0, 0.0, 0.0, 0.0, 0.0, 1.9827499, 0.0, 0.0, 0.0, 0.0, 0.0, 0.0, 0.0, 0.0, 0.0, 0.0, 0.0, 0.0, 0.0, 0.0, 0.0, 0.0, 0.0, 0.0, 0.0, 0.0, 0.0, 0.0, 0.0, 0.0, 0.0, 0.0, 0.0, 0.0, 0.0], "parents": [2147483647, 0, 0, 1, 1, 2, 2, 3, 3, 4, 4, 5, 5, 6, 6, 7, 7, 8, 8, 9, 9, 10, 10, 11, 11, 12, 12, 14, 14, 15, 15, 16, 16, 17, 17, 18, 18, 19, 19, 20, 20, 23, 23, 24, 24, 25, 25, 26, 26, 27, 27, 29, 29, 30, 30, 32, 32, 33, 33, 34, 34, 35, 35, 36, 36, 37, 37, 38, 38, 39, 39, 40, 40, 41, 41, 42, 42, 49, 49], "right_children": [2, 4, 6, 8, 10, 12, 14, 16, 18, 20, 22, 24, 26, -1, 28, 30, 32, 34, 36, 38, 40, -1, -1, 42, 44, 46, 48, 50, -1, 52, 54, -1, 56, 58, 60, 62, 64, 66, 68, 70, 72, 74, 76, -1, -1, -1, -1, -1, -1, 78, -1, -1, -1, -1, -1, -1, -1, -1, -1, -1, -1, -1, -1, -1, -1, -1, -1, -1, -1, -1, -1, -1, -1, -1, -1, -1, -1, -1, -1], "split_conditions": [0.20655416, 0.32949868, 0.7421183, -0.48324013, 0.5502693, 0.3909915, -1.5057404, 0.8670551, 0.43473494, -0.36712366, -0.377465, 2.2306979, 0.12535504, 0.04803293, 1.6019888, -0.5204818, -1.0159053, -0.7766911, -0.5922655, 0.17045774, 0.6237364, -0.015463834, 0.0726919, -0.13580717, -0.45210895, 0.1214535, 0.12105068, 0.8724725, 0.009961746, -0.21310012, -0.01455655, 0.009436657, -0.81571335, -0.7775748, -0.8344364, 1.3677994, -0.35209295, 0.9326495, 1.8786191, 1.7215306, 2.290512, 0.89055836, -0.31722206, 0.0067147547, 0.05911879, -0.0060307113, 0.07863644, -0.060107745, 0.008242735, -1.092715, -0.012166059, 0.073547184, -0.0057645827, 0.025631491, -0.045482643, -0.0117189465, -0.074755214, -0.008668543, 0.059154313, -0.0037265755, 0.06477643, -0.06559738, -0.01391159, -0.01508002, 0.06092701, -0.07661665, 0.009145984, -0.012832165, 0.012368939, -0.04193847, 0.026010904, 0.05714898, -0.049722817, -0.06820833, 0.014200248, -0.039602775, 0.039472662, -0.013679558, -0.077724785], "split_indices": [172, 152, 113, 149, 147, 163, 187, 193, 151, 177, 125, 243, 189, 0, 130, 130, 133, 130, 160, 162, 121, 0, 0, 181, 115, 128, 188, 245, 0, 181, 162, 0, 120, 172, 118, 151, 181, 124, 39, 132, 40, 114, 174, 0, 0, 0, 0, 0, 0, 120, 0, 0, 0, 0, 0, 0, 0, 0, 0, 0, 0, 0, 0, 0, 0, 0, 0, 0, 0, 0, 0, 0, 0, 0, 0, 0, 0, 0, 0], "split_type": [0, 0, 0, 0, 0, 0, 0, 0, 0, 0, 0, 0, 0, 0, 0, 0, 0, 0, 0, 0, 0, 0, 0, 0, 0, 0, 0, 0, 0, 0, 0, 0, 0, 0, 0, 0, 0, 0, 0, 0, 0, 0, 0, 0, 0, 0, 0, 0, 0, 0, 0, 0, 0, 0, 0, 0, 0, 0, 0, 0, 0, 0, 0, 0, 0, 0, 0, 0, 0, 0, 0, 0, 0, 0, 0, 0, 0, 0, 0], "sum_hessian": [238.72673, 161.52103, 77.2057, 124.45121, 37.069817, 43.23822, 33.967484, 37.432457, 87.01875, 32.05967, 5.010145, 32.746788, 10.491431, 1.0737169, 32.89377, 29.955877, 7.476579, 75.62535, 11.393401, 12.773433, 19.286238, 1.095689, 3.9144561, 29.73798, 3.0088093, 7.0795965, 3.4118352, 31.683039, 1.2107294, 9.346939, 20.608938, 1.2099484, 6.266631, 16.617964, 59.00739, 3.3346841, 8.058717, 10.46095, 2.3124826, 13.607002, 5.6792364, 22.419043, 7.3189383, 1.2123772, 1.7964323, 1.7072138, 5.3723826, 2.213929, 1.1979063, 29.725338, 1.9576999, 7.0214624, 2.3254762, 14.210173, 6.3987656, 1.0934882, 5.173143, 12.172633, 4.445331, 4.369252, 54.638138, 2.2312493, 1.1034348, 4.2584004, 3.8003168, 9.249552, 1.211398, 1.1019845, 1.2104982, 11.070501, 2.5365005, 4.436156, 1.2430804, 19.997007, 2.4220355, 3.4446492, 3.8742888, 1.9615154, 27.763823], "tree_param": {"num_deleted": "0", "num_feature": "246", "num_nodes": "79", "size_leaf_vector": "1"}}, {"base_weights": [-0.009549519, 0.52261764, -0.48639545, 0.100177564, 0.9543299, 0.19249529, -0.8878727, -0.7429139, 0.31532416, -0.48727277, 1.0776846, 1.1359383, -0.11068589, -0.56976587, -1.3319608, -1.1599723, 0.04473551, 0.60247153, -0.29947332, -0.96401674, 0.023896057, 1.2139752, -0.13044725, 1.3262444, -0.005427017, -0.4580925, 1.0965539, -0.9045174, -0.045406222, -1.4284519, -0.0, -1.3615264, 0.0076982044, -0.028804794, 0.93487054, -0.99585134, 0.4841792, -0.057185657, -0.010944398, 0.03671962, 1.3596991, 0.40723604, -0.056946795, 0.07338177, 0.0038961996, -0.9301555, 0.49085864, 0.0780191, -0.09660865, -1.115674, 0.2240249, 0.70103616, -0.46133748, -0.31263104, -1.5634482, 0.011450986, -0.014037931, -0.01775947, -0.07863828, -0.037252862, 0.02832064, 0.06695536, -0.008752509, 0.010800497, -0.07513031, 0.06366035, -0.0037556347, 0.033301257, -0.058200777, 0.07186679, -0.026699333, -0.027441034, 0.048855353, -0.063597746, 0.008170702, 0.040204946, -0.049444743, -0.050869305, 0.044760164, -0.061975665, 0.021622881, 0.040612724, -0.047532335, -0.027269442, 0.05678639, 0.0051944805, -0.07191097, -0.048125178, 0.04581199, -0.011450659, -0.08034742], "categories": [], "categories_nodes": [], "categories_segments": [], "categories_sizes": [], "default_left": [0, 0, 0, 0, 0, 0, 0, 0, 0, 0, 0, 0, 0, 0, 0, 0, 0, 0, 0, 0, 0, 0, 0, 0, 0, 0, 0, 0, 0, 0, 0, 0, 0, 0, 0, 0, 0, 0, 0, 0, 0, 0, 0, 0, 0, 0, 0, 0, 0, 0, 0, 0, 0, 0, 0, 0, 0, 0, 0, 0, 0, 0, 0, 0, 0, 0, 0, 0, 0, 0, 0, 0, 0, 0, 0, 0, 0, 0, 0, 0, 0, 0, 0, 0, 0, 0, 0, 0, 0, 0, 0], "id": 5, "left_children": [1, 3, 5, 7, 9, 11, 13, 15, 17, 19, 21, 23, 25, 27, 29, 31, -1, 33, 35, 37, -1, 39, 41, 43, -1, 45, 47, 49, 51, 53, 55, 57, -1, 59, 61, 63, 65, -1, -1, 67, 69, 71, -1, -1, -1, 73, 75, -1, 77, 79, 81, 83, 85, 87, 89, -1, -1, -1, -1, -1, -1, -1, -1, -1, -1, -1, -1, -1, -1, -1, -1, -1, -1, -1, -1, -1, -1, -1, -1, -1, -1, -1, -1, -1, -1, -1, -1, -1, -1, -1, -1], "loss_changes": [62.165874, 20.897495, 35.48252, 11.021635, 10.717255, 14.180681, 10.567291, 9.493952, 8.748899, 2.8635821, 8.971481, 3.1153078, 16.269587, 8.531071, 4.137863, 3.0637283, 0.0, 7.128134, 9.2401085, 0.12561464, 0.0, 7.9898376, 3.8923485, 1.5987358, 0.0, 13.975913, 5.092724, 7.480448, 6.6357646, 3.9700165, 0.28082275, 1.1864452, 0.0, 5.722217, 10.230352, 5.883542, 3.7953455, 0.0, 0.0, 5.527499, 7.0801773, 3.1441283, 0.0, 0.0, 0.0, 7.982769, 5.6794567, 0.0, 3.9430356, 5.5029907, 4.5459423, 4.8036613, 7.899969, 4.6072364, 1.0265656, 0.0, 0.0, 0.0, 0.0, 0.0, 0.0, 0.0, 0.0, 0.0, 0.0, 0.0, 0.0, 0.0, 0.0, 0.0, 0.0, 0.0, 0.0, 0.0, 0.0, 0.0, 0.0, 0.0, 0.0, 0.0, 0.0, 0.0, 0.0, 0.0, 0.0, 0.0, 0.0, 0.0, 0.0, 0.0, 0.0], "parents": [2147483647, 0, 0, 1, 1, 2, 2, 3, 3, 4, 4, 5, 5, 6, 6, 7, 7, 8, 8, 9, 9, 10, 10, 11, 11, 12, 12, 13, 13, 14, 14, 15, 15, 17, 17, 18, 18, 19, 19, 21, 21, 22, 22, 23, 23, 25, 25, 26, 26, 27, 27, 28, 28, 29, 29, 30, 30, 31, 31, 33, 33, 34, 34, 35, 35, 36, 36, 39, 39, 40, 40, 41, 41, 45, 45, 46, 46, 48, 48, 49, 49, 50, 50, 51, 51, 52, 52, 53, 53, 54, 54], "right_children": [2, 4, 6, 8, 10, 12, 14, 16, 18, 20, 22, 24, 26, 28, 30, 32, -1, 34, 36, 38, -1, 40, 42, 44, -1, 46, 48, 50, 52, 54, 56, 58, -1, 60, 62, 64, 66, -1, -1, 68, 70, 72, -1, -1, -1, 74, 76, -1, 78, 80, 82, 84, 86, 88, 90, -1, -1, -1, -1, -1, -1, -1, -1, -1, -1, -1, -1, -1, -1, -1, -1, -1, -1, -1, -1, -1, -1, -1, -1, -1, -1, -1, -1, -1, -1, -1, -1, -1, -1, -1, -1], "split_conditions": [-0.1373639, 0.7365424, -0.35833412, -0.43942386, -0.87167066, -0.9838108, 0.002660171, 0.9584935, 0.47462952, -0.93462193, 0.7874393, 0.24769527, 1.6010337, -0.07796275, 1.9630389, 3.784915, 0.04473551, -0.3602855, -0.083838314, -0.45427936, 0.023896057, -0.8465721, 0.7010435, 3.2190168, -0.005427017, 0.120147415, -0.45167112, 0.06026642, -0.19282116, -0.114660986, 4.463254, -0.22003688, 0.0076982044, -0.24850598, -0.118982226, 1.1455482, -0.42100382, -0.057185657, -0.010944398, 1.0654463, 0.053216007, 0.9139604, -0.056946795, 0.07338177, 0.0038961996, -0.196192, -0.27971563, 0.0780191, -0.25565395, 3.5660498, 1.9823502, -0.2126192, 0.53672945, 0.21630311, -1.4224702, 0.011450986, -0.014037931, -0.01775947, -0.07863828, -0.037252862, 0.02832064, 0.06695536, -0.008752509, 0.010800497, -0.07513031, 0.06366035, -0.0037556347, 0.033301257, -0.058200777, 0.07186679, -0.026699333, -0.027441034, 0.048855353, -0.063597746, 0.008170702, 0.040204946, -0.049444743, -0.050869305, 0.044760164, -0.061975665, 0.021622881, 0.040612724, -0.047532335, -0.027269442, 0.05678639, 0.0051944805, -0.07191097, -0.048125178, 0.04581199, -0.011450659, -0.08034742], "split_indices": [194, 120, 130, 191, 134, 120, 187, 127, 151, 128, 113, 134, 187, 129, 166, 22, 0, 130, 168, 182, 0, 130, 177, 0, 0, 177, 158, 245, 131, 138, 2, 183, 0, 128, 173, 96, 130, 0, 0, 168, 138, 113, 0, 0, 0, 179, 174, 0, 149, 142, 137, 130, 146, 175, 113, 0, 0, 0, 0, 0, 0, 0, 0, 0, 0, 0, 0, 0, 0, 0, 0, 0, 0, 0, 0, 0, 0, 0, 0, 0, 0, 0, 0, 0, 0, 0, 0, 0, 0, 0, 0], "split_type": [0, 0, 0, 0, 0, 0, 0, 0, 0, 0, 0, 0, 0, 0, 0, 0, 0, 0, 0, 0, 0, 0, 0, 0, 0, 0, 0, 0, 0, 0, 0, 0, 0, 0, 0, 0, 0, 0, 0, 0, 0, 0, 0, 0, 0, 0, 0, 0, 0, 0, 0, 0, 0, 0, 0, 0, 0, 0, 0, 0, 0, 0, 0, 0, 0, 0, 0, 0, 0, 0, 0, 0, 0, 0, 0, 0, 0, 0, 0, 0, 0, 0, 0, 0, 0, 0, 0, 0, 0, 0, 0], "sum_hessian": [242.9899, 114.68928, 128.30063, 58.706924, 55.98235, 47.778873, 80.52176, 11.342275, 47.36465, 4.1162586, 51.86609, 11.032113, 36.74676, 48.376873, 32.144886, 9.321165, 2.0211096, 32.409954, 14.954695, 2.825479, 1.2907798, 46.678207, 5.187881, 9.581551, 1.4505618, 29.081404, 7.665357, 28.967985, 19.408886, 29.846176, 2.2987094, 8.116071, 1.2050943, 11.390384, 21.019573, 7.8424635, 7.1122317, 1.7373676, 1.0881113, 5.3550143, 41.323193, 3.7079782, 1.4799029, 8.376942, 1.2046094, 19.504118, 9.577287, 5.358388, 2.306969, 24.486446, 4.481538, 6.613758, 12.795129, 3.6590064, 26.18717, 1.1999593, 1.0987501, 1.9554099, 6.160661, 5.1315827, 6.2588005, 15.32263, 5.6969423, 2.4234335, 5.41903, 2.4948819, 4.6173496, 3.8603864, 1.494628, 39.97798, 1.3452106, 1.3330381, 2.3749402, 14.80506, 4.699057, 8.336715, 1.2405716, 1.2352391, 1.0717297, 22.917181, 1.5692649, 3.248482, 1.233056, 1.5848087, 5.0289493, 8.606605, 4.1885242, 2.588333, 1.0706735, 1.0970484, 25.09012], "tree_param": {"num_deleted": "0", "num_feature": "246", "num_nodes": "91", "size_leaf_vector": "1"}}, {"base_weights": [-0.03234019, 0.51562876, -0.5066811, 0.86766106, -0.06837992, -0.758789, 0.080410816, -0.63573104, 1.0208577, 0.48196664, -0.86838824, -1.2905225, -0.4696127, -0.86344707, 0.38070327, -1.133882, 0.021023575, -0.39059693, 1.122522, -0.20229875, 1.1337457, -1.4779472, 0.18999083, -0.21587999, -1.4224101, -1.0232519, 0.046843335, -0.073093735, 0.21319999, -0.75241685, 0.67154837, -0.010041165, -0.06566788, 0.026186725, -0.059598234, 0.47341862, 1.3276552, -0.6539637, 0.7773903, 1.354469, -0.021361219, -0.07838765, -0.014175126, 0.7017032, -0.052283507, 0.04175794, -0.056554504, -0.014869811, -1.4942125, -1.1272168, 0.041604806, 0.401612, -0.7292041, -0.045403328, 0.049638476, -0.06547769, -0.0043321345, 0.95181006, -0.5984702, -0.0397052, 0.03523515, 0.071123056, 0.030407092, -0.06014516, 0.03728379, 0.058440704, -0.0, 0.07448715, 0.0018374667, 0.05077867, -0.014283389, -0.022761421, -0.07900923, -0.06568854, 0.005279664, 0.041568737, -0.015246764, -0.054866474, 0.020047039, -0.033821832, 0.043593056, 0.05434986, -0.026409075, -0.06517616, 0.048963763], "categories": [], "categories_nodes": [], "categories_segments": [], "categories_sizes": [], "default_left": [0, 0, 0, 0, 0, 0, 0, 0, 0, 0, 0, 0, 0, 0, 0, 0, 0, 0, 0, 0, 0, 0, 0, 0, 0, 0, 0, 0, 0, 0, 0, 0, 0, 0, 0, 0, 0, 0, 0, 0, 0, 0, 0, 0, 0, 0, 0, 0, 0, 0, 0, 0, 0, 0, 0, 0, 0, 0, 0, 0, 0, 0, 0, 0, 0, 0, 0, 0, 0, 0, 0, 0, 0, 0, 0, 0, 0, 0, 0, 0, 0, 0, 0, 0, 0], "id": 6, "left_children": [1, 3, 5, 7, 9, 11, 13, 15, 17, 19, 21, 23, 25, 27, 29, 31, -1, 33, 35, 37, 39, 41, 43, 45, 47, 49, 51, -1, 53, 55, 57, -1, -1, -1, -1, 59, 61, 63, 65, 67, -1, -1, -1, 69, -1, -1, -1, -1, 71, 73, -1, 75, 77, -1, -1, -1, 79, 81, 83, -1, -1, -1, -1, -1, -1, -1, -1, -1, -1, -1, -1, -1, -1, -1, -1, -1, -1, -1, -1, -1, -1, -1, -1, -1, -1], "loss_changes": [61.5618, 22.718534, 18.928692, 16.510647, 19.003813, 12.914398, 11.318119, 4.183406, 9.522102, 11.706556, 11.763549, 3.8779564, 17.127106, 6.6378655, 10.488798, 0.42712307, 0.0, 4.2775517, 7.0338135, 6.3484716, 5.2535496, 0.58696365, 5.2885084, 5.414353, 1.5629692, 6.52285, 8.95733, 0.0, 4.626306, 2.6111338, 9.40516, 0.0, 0.0, 0.0, 0.0, 5.186926, 1.9389954, 8.368923, 1.5037048, 1.922308, 0.0, 0.0, 0.0, 2.156864, 0.0, 0.0, 0.0, 0.0, 1.3201942, 6.64122, 0.0, 7.111665, 4.7437325, 0.0, 0.0, 0.0, 2.8636668, 4.77256, 6.8921385, 0.0, 0.0, 0.0, 0.0, 0.0, 0.0, 0.0, 0.0, 0.0, 0.0, 0.0, 0.0, 0.0, 0.0, 0.0, 0.0, 0.0, 0.0, 0.0, 0.0, 0.0, 0.0, 0.0, 0.0, 0.0, 0.0], "parents": [2147483647, 0, 0, 1, 1, 2, 2, 3, 3, 4, 4, 5, 5, 6, 6, 7, 7, 8, 8, 9, 9, 10, 10, 11, 11, 12, 12, 13, 13, 14, 14, 15, 15, 17, 17, 18, 18, 19, 19, 20, 20, 21, 21, 22, 22, 23, 23, 24, 24, 25, 25, 26, 26, 28, 28, 29, 29, 30, 30, 35, 35, 36, 36, 37, 37, 38, 38, 39, 39, 43, 43, 48, 48, 49, 49, 51, 51, 52, 52, 56, 56, 57, 57, 58, 58], "right_children": [2, 4, 6, 8, 10, 12, 14, 16, 18, 20, 22, 24, 26, 28, 30, 32, -1, 34, 36, 38, 40, 42, 44, 46, 48, 50, 52, -1, 54, 56, 58, -1, -1, -1, -1, 60, 62, 64, 66, 68, -1, -1, -1, 70, -1, -1, -1, -1, 72, 74, -1, 76, 78, -1, -1, -1, 80, 82, 84, -1, -1, -1, -1, -1, -1, -1, -1, -1, -1, -1, -1, -1, -1, -1, -1, -1, -1, -1, -1, -1, -1, -1, -1, -1, -1], "split_conditions": [-0.28184766, -0.46521088, 1.5740308, -0.87167066, -0.3830905, -0.67525685, -1.3939469, 0.2631246, -0.7472319, 0.11246204, 0.09732054, -0.1373639, -0.4989014, 1.5179064, -0.39580423, 0.16611302, 0.021023575, -0.73861027, -0.1972011, 0.52475363, 2.6619334, 1.4050175, 0.17689677, -0.13746415, -1.0949758, 2.87394, 0.39205587, -0.073093735, -0.6642182, 0.7183152, 0.27625364, -0.010041165, -0.06566788, 0.026186725, -0.059598234, -0.6372783, 0.54152966, 1.079538, 0.43445295, -0.1364921, -0.021361219, -0.07838765, -0.014175126, 0.5971998, -0.052283507, 0.04175794, -0.056554504, -0.014869811, -0.73861027, -0.05156325, 0.041604806, -0.12842934, 0.2792013, -0.045403328, 0.049638476, -0.06547769, -0.50210756, 1.0582644, 0.8180803, -0.0397052, 0.03523515, 0.071123056, 0.030407092, -0.06014516, 0.03728379, 0.058440704, -0.0, 0.07448715, 0.0018374667, 0.05077867, -0.014283389, -0.022761421, -0.07900923, -0.06568854, 0.005279664, 0.041568737, -0.015246764, -0.054866474, 0.020047039, -0.033821832, 0.043593056, 0.05434986, -0.026409075, -0.06517616, 0.048963763], "split_indices": [166, 139, 58, 134, 130, 135, 129, 149, 212, 139, 186, 194, 177, 139, 177, 114, 0, 169, 133, 131, 17, 116, 187, 130, 120, 230, 115, 0, 120, 119, 186, 0, 0, 0, 0, 134, 189, 190, 133, 137, 0, 0, 0, 129, 0, 0, 0, 0, 169, 212, 0, 169, 167, 0, 0, 0, 149, 122, 119, 0, 0, 0, 0, 0, 0, 0, 0, 0, 0, 0, 0, 0, 0, 0, 0, 0, 0, 0, 0, 0, 0, 0, 0, 0, 0], "split_type": [0, 0, 0, 0, 0, 0, 0, 0, 0, 0, 0, 0, 0, 0, 0, 0, 0, 0, 0, 0, 0, 0, 0, 0, 0, 0, 0, 0, 0, 0, 0, 0, 0, 0, 0, 0, 0, 0, 0, 0, 0, 0, 0, 0, 0, 0, 0, 0, 0, 0, 0, 0, 0, 0, 0, 0, 0, 0, 0, 0, 0, 0, 0, 0, 0, 0, 0, 0, 0, 0, 0, 0, 0, 0, 0, 0, 0, 0, 0, 0, 0, 0, 0, 0, 0], "sum_hessian": [234.84363, 108.826744, 126.01688, 67.70228, 41.124462, 88.07413, 37.94275, 5.909269, 61.79301, 24.525372, 16.599092, 29.683662, 58.39047, 8.624975, 29.317774, 4.029782, 1.8794872, 3.894744, 57.898266, 12.226093, 12.299278, 10.341249, 6.257842, 3.6158874, 26.067776, 27.800623, 30.589844, 5.3733883, 3.2515872, 5.593788, 23.723986, 1.0818061, 2.9479756, 1.9226887, 1.9720552, 14.81487, 43.083397, 8.665567, 3.5605252, 10.947623, 1.3516551, 9.249553, 1.0916966, 4.7880607, 1.4697816, 1.672905, 1.9429824, 1.9559618, 24.111813, 26.748133, 1.0524908, 21.412506, 9.177339, 1.2133299, 2.0382571, 2.6992798, 2.8945084, 19.704895, 4.0190897, 1.8438857, 12.970984, 37.081432, 6.001962, 6.3766503, 2.2889175, 2.1181545, 1.4423708, 9.74118, 1.2064424, 3.6883166, 1.0997438, 2.4126644, 21.699148, 23.245907, 3.5022266, 13.292253, 8.120253, 7.0111103, 2.1662285, 1.8316277, 1.0628805, 18.360863, 1.3440329, 2.9417064, 1.0773833], "tree_param": {"num_deleted": "0", "num_feature": "246", "num_nodes": "85", "size_leaf_vector": "1"}}, {"base_weights": [0.045351833, 0.4322159, -0.5963611, 0.831943, 0.043679386, -0.743491, 0.29336193, 0.030966604, 1.1227535, -0.13704583, 0.951527, -0.9212062, 0.11496808, 0.75105464, -0.056804795, 0.47909975, -1.098551, 1.2476665, -0.15932302, 1.0003388, -0.27820796, 1.2322876, -0.030828549, -1.1610433, -0.31836444, 0.82246697, -0.51671314, -0.032466244, 1.1215475, -0.26275754, 0.9140643, -0.0714015, -0.0, 0.14798254, 1.3532174, -0.93568146, 0.03927267, 0.16711989, 0.06798653, -1.2200075, -0.10329389, 0.070425354, -0.0, -1.2799132, 0.36380088, 0.22017, -1.2698162, -0.013021866, 0.06516539, 0.04682545, -0.89334726, 0.07062498, -0.0020332087, 0.024918955, -0.05200395, 0.055177595, -0.014013591, 0.040030774, -0.055740446, 0.07008382, 0.012103411, -0.055179674, -0.012017788, -0.026284713, 0.045892786, -0.0736228, 0.008679039, 0.0053761574, -0.052782424, -0.0122548025, -0.07025654, -0.018734956, 0.04540628, -0.04393174, 0.02993449, -0.07048395, -0.009201244, -0.06861582, 0.02073839], "categories": [], "categories_nodes": [], "categories_segments": [], "categories_sizes": [], "default_left": [0, 0, 0, 0, 0, 0, 0, 0, 0, 0, 0, 0, 0, 0, 0, 0, 0, 0, 0, 0, 0, 0, 0, 0, 0, 0, 0, 0, 0, 0, 0, 0, 0, 0, 0, 0, 0, 0, 0, 0, 0, 0, 0, 0, 0, 0, 0, 0, 0, 0, 0, 0, 0, 0, 0, 0, 0, 0, 0, 0, 0, 0, 0, 0, 0, 0, 0, 0, 0, 0, 0, 0, 0, 0, 0, 0, 0, 0, 0], "id": 7, "left_children": [1, 3, 5, 7, 9, 11, 13, 15, 17, 19, 21, 23, 25, 27, -1, 29, 31, 33, 35, 37, 39, 41, -1, 43, 45, 47, 49, -1, 51, 53, 55, -1, -1, 57, 59, 61, -1, 63, -1, 65, 67, -1, -1, 69, 71, 73, 75, -1, -1, -1, 77, -1, -1, -1, -1, -1, -1, -1, -1, -1, -1, -1, -1, -1, -1, -1, -1, -1, -1, -1, -1, -1, -1, -1, -1, -1, -1, -1, -1], "loss_changes": [59.183975, 22.98664, 11.99522, 16.892002, 12.786339, 11.977211, 9.5413, 10.895575, 8.88443, 10.5938635, 6.5190573, 8.770077, 6.7336836, 6.357186, 0.0, 5.31137, 2.1554003, 5.3354797, 4.83574, 1.800889, 9.36479, 2.4130363, 0.0, 8.796875, 10.519186, 4.13381, 5.1896358, 0.0, 3.214489, 4.3743615, 2.674677, 0.0, 0.0, 5.3903666, 1.8918686, 0.017415285, 0.0, 2.2998137, 0.0, 3.5404491, 10.336968, 0.0, 0.0, 4.991493, 2.003665, 6.0777583, 0.69949245, 0.0, 0.0, 0.0, 4.98114, 0.0, 0.0, 0.0, 0.0, 0.0, 0.0, 0.0, 0.0, 0.0, 0.0, 0.0, 0.0, 0.0, 0.0, 0.0, 0.0, 0.0, 0.0, 0.0, 0.0, 0.0, 0.0, 0.0, 0.0, 0.0, 0.0, 0.0, 0.0], "parents": [2147483647, 0, 0, 1, 1, 2, 2, 3, 3, 4, 4, 5, 5, 6, 6, 7, 7, 8, 8, 9, 9, 10, 10, 11, 11, 12, 12, 13, 13, 15, 15, 16, 16, 17, 17, 18, 18, 19, 19, 20, 20, 21, 21, 23, 23, 24, 24, 25, 25, 26, 26, 28, 28, 29, 29, 30, 30, 33, 33, 34, 34, 35, 35, 37, 37, 39, 39, 40, 40, 43, 43, 44, 44, 45, 45, 46, 46, 50, 50], "right_children": [2, 4, 6, 8, 10, 12, 14, 16, 18, 20, 22, 24, 26, 28, -1, 30, 32, 34, 36, 38, 40, 42, -1, 44, 46, 48, 50, -1, 52, 54, 56, -1, -1, 58, 60, 62, -1, 64, -1, 66, 68, -1, -1, 70, 72, 74, 76, -1, -1, -1, 78, -1, -1, -1, -1, -1, -1, -1, -1, -1, -1, -1, -1, -1, -1, -1, -1, -1, -1, -1, -1, -1, -1, -1, -1, -1, -1, -1, -1], "split_conditions": [0.06356527, -0.49223226, 3.784915, -0.6654867, 1.9070873, 0.20522533, 0.46842003, 0.72568023, 0.8184301, -0.5994825, 0.661067, 1.4545925, 0.380818, 0.4295576, -0.056804795, -0.43006665, 0.35581532, -0.7182477, 1.5892566, -0.33156237, -0.8238682, 0.09086766, -0.030828549, 1.4096617, 0.8049789, -0.52674043, -1.462126, -0.032466244, 2.301799, -0.63687974, 0.69640654, -0.0714015, -0.0, 0.80773187, 2.5964305, 1.5369596, 0.03927267, -0.26722327, 0.06798653, 0.7482349, 0.27864075, 0.070425354, -0.0, -1.3780227, 0.45449668, -0.50563234, 2.6164763, -0.013021866, 0.06516539, 0.04682545, 0.65075743, 0.07062498, -0.0020332087, 0.024918955, -0.05200395, 0.055177595, -0.014013591, 0.040030774, -0.055740446, 0.07008382, 0.012103411, -0.055179674, -0.012017788, -0.026284713, 0.045892786, -0.0736228, 0.008679039, 0.0053761574, -0.052782424, -0.0122548025, -0.07025654, -0.018734956, 0.04540628, -0.04393174, 0.02993449, -0.07048395, -0.009201244, -0.06861582, 0.02073839], "split_indices": [172, 139, 22, 118, 219, 115, 189, 193, 113, 124, 176, 77, 151, 172, 0, 167, 133, 120, 130, 151, 134, 152, 0, 128, 134, 207, 127, 0, 239, 124, 135, 0, 0, 123, 207, 59, 0, 122, 0, 115, 120, 0, 0, 188, 146, 124, 132, 0, 0, 0, 115, 0, 0, 0, 0, 0, 0, 0, 0, 0, 0, 0, 0, 0, 0, 0, 0, 0, 0, 0, 0, 0, 0, 0, 0, 0, 0, 0, 0], "split_type": [0, 0, 0, 0, 0, 0, 0, 0, 0, 0, 0, 0, 0, 0, 0, 0, 0, 0, 0, 0, 0, 0, 0, 0, 0, 0, 0, 0, 0, 0, 0, 0, 0, 0, 0, 0, 0, 0, 0, 0, 0, 0, 0, 0, 0, 0, 0, 0, 0, 0, 0, 0, 0, 0, 0, 0, 0, 0, 0, 0, 0, 0, 0, 0, 0, 0, 0, 0, 0, 0, 0, 0, 0, 0, 0, 0, 0, 0, 0], "sum_hessian": [236.42714, 147.80405, 88.623085, 72.163506, 75.64055, 76.28491, 12.338177, 19.60793, 52.555576, 63.698902, 11.941648, 63.237167, 13.047742, 9.758261, 2.5799165, 14.513935, 5.0939946, 47.985207, 4.5703697, 6.282677, 57.416225, 10.363953, 1.5776948, 44.457985, 18.779184, 6.08673, 6.9610114, 1.8276489, 7.9306116, 5.425846, 9.088089, 3.663298, 1.430697, 4.4957376, 43.489468, 2.5721822, 1.9981875, 2.4186049, 3.864072, 7.967855, 49.448368, 8.914637, 1.449316, 41.452724, 3.005258, 12.415396, 6.3637886, 1.9486248, 4.1381054, 1.0721494, 5.888862, 6.239325, 1.6912868, 2.8577762, 2.56807, 7.98152, 1.1065686, 3.2574272, 1.2383107, 41.335304, 2.1541617, 1.4830638, 1.0891184, 1.3444458, 1.074159, 6.758684, 1.2091708, 41.12653, 8.321839, 4.87996, 36.572765, 1.3294581, 1.6758, 2.7748528, 9.640543, 5.291752, 1.0720363, 4.3305783, 1.5582839], "tree_param": {"num_deleted": "0", "num_feature": "246", "num_nodes": "79", "size_leaf_vector": "1"}}, {"base_weights": [0.00042749342, 0.35790277, -0.68029547, -0.10807349, 0.5889572, -0.31778267, -1.1116654, 0.37792268, -0.6827173, 0.88835824, 0.21331702, -0.5746015, 0.8457092, -1.1945754, 0.030143667, -0.6668895, 0.79183364, -0.9167024, 0.39685756, 0.26415876, 1.1565878, -0.7089287, 0.4202183, -0.03423837, -0.9846261, -0.020213034, 1.1376244, -1.3712419, -0.09051825, -1.0935417, 0.034141157, 0.9073304, -0.023675404, -0.0930639, -1.2368982, 0.055028643, -0.046075344, -0.05018833, 0.53350985, 1.287871, 0.43115512, -1.0098232, 0.020312529, -0.28565055, 0.6656151, 0.522056, -0.70571935, -1.1628832, 0.28025365, 0.002667105, 0.06613077, 0.011289125, -1.4466754, 0.056610443, -0.743945, 0.0030509639, -0.07095526, 0.056513328, 0.0039335336, -0.055439617, 0.02919435, -0.06928821, 0.009272617, -0.044208, 0.039166223, 0.06652807, 0.0016121796, -0.02265744, 0.06129951, -0.06386759, 0.007986885, -0.033345994, 0.044162575, 0.046718415, -0.014860654, -0.028865566, 0.052660763, -0.06766554, 0.028501375, -0.0720371, -0.011942378, 0.045137327, -0.017636998, -0.07648483, -0.016409671, 0.0093834, -0.05783192], "categories": [], "categories_nodes": [], "categories_segments": [], "categories_sizes": [], "default_left": [0, 0, 0, 0, 0, 0, 0, 0, 0, 0, 0, 0, 0, 0, 0, 0, 0, 0, 0, 0, 0, 0, 0, 0, 0, 0, 0, 0, 0, 0, 0, 0, 0, 0, 0, 0, 0, 0, 0, 0, 0, 0, 0, 0, 0, 0, 0, 0, 0, 0, 0, 0, 0, 0, 0, 0, 0, 0, 0, 0, 0, 0, 0, 0, 0, 0, 0, 0, 0, 0, 0, 0, 0, 0, 0, 0, 0, 0, 0, 0, 0, 0, 0, 0, 0, 0, 0], "id": 8, "left_children": [1, 3, 5, 7, 9, 11, 13, 15, 17, 19, 21, 23, 25, 27, -1, 29, 31, 33, 35, 37, 39, 41, 43, 45, 47, -1, 49, 51, 53, 55, -1, 57, -1, 59, 61, -1, -1, -1, 63, 65, 67, 69, -1, 71, 73, 75, 77, 79, 81, -1, -1, -1, 83, -1, 85, -1, -1, -1, -1, -1, -1, -1, -1, -1, -1, -1, -1, -1, -1, -1, -1, -1, -1, -1, -1, -1, -1, -1, -1, -1, -1, -1, -1, -1, -1, -1, -1], "loss_changes": [57.543137, 16.824799, 12.228466, 14.854901, 11.40509, 14.126543, 5.9865, 12.998873, 6.566682, 9.171055, 9.356269, 8.313896, 3.6730628, 6.621231, 0.0, 5.7680893, 3.5653248, 5.129446, 5.633016, 6.86635, 3.0608025, 3.4939098, 7.0899124, 6.958953, 5.2712727, 0.0, 1.2566862, 4.10009, 5.6152816, 2.8580885, 0.0, 3.4489346, 0.0, 5.428375, 3.4501953, 0.0, 0.0, 0.0, 6.391813, 1.5928993, 6.0555143, 2.6477785, 0.0, 5.386709, 8.0525465, 6.562621, 7.8543205, 4.4032803, 1.7121115, 0.0, 0.0, 0.0, 2.0177956, 0.0, 2.075529, 0.0, 0.0, 0.0, 0.0, 0.0, 0.0, 0.0, 0.0, 0.0, 0.0, 0.0, 0.0, 0.0, 0.0, 0.0, 0.0, 0.0, 0.0, 0.0, 0.0, 0.0, 0.0, 0.0, 0.0, 0.0, 0.0, 0.0, 0.0, 0.0, 0.0, 0.0, 0.0], "parents": [2147483647, 0, 0, 1, 1, 2, 2, 3, 3, 4, 4, 5, 5, 6, 6, 7, 7, 8, 8, 9, 9, 10, 10, 11, 11, 12, 12, 13, 13, 15, 15, 16, 16, 17, 17, 18, 18, 19, 19, 20, 20, 21, 21, 22, 22, 23, 23, 24, 24, 26, 26, 27, 27, 28, 28, 29, 29, 31, 31, 33, 33, 34, 34, 38, 38, 39, 39, 40, 40, 41, 41, 43, 43, 44, 44, 45, 45, 46, 46, 47, 47, 48, 48, 52, 52, 54, 54], "right_children": [2, 4, 6, 8, 10, 12, 14, 16, 18, 20, 22, 24, 26, 28, -1, 30, 32, 34, 36, 38, 40, 42, 44, 46, 48, -1, 50, 52, 54, 56, -1, 58, -1, 60, 62, -1, -1, -1, 64, 66, 68, 70, -1, 72, 74, 76, 78, 80, 82, -1, -1, -1, 84, -1, 86, -1, -1, -1, -1, -1, -1, -1, -1, -1, -1, -1, -1, -1, -1, -1, -1, -1, -1, -1, -1, -1, -1, -1, -1, -1, -1, -1, -1, -1, -1, -1, -1], "split_conditions": [0.17593129, -0.4836023, 0.15323567, -0.32312882, -0.49223226, 0.99900687, 0.45555648, -0.44197297, 0.24884002, -0.1972011, -1.4001904, -0.22613008, 0.5014121, 1.2927167, 0.030143667, 0.21505457, 0.11188735, -1.1093994, 2.246302, -0.6372783, 1.5203809, 2.795737, -0.3734999, -0.18990465, 3.3264248, -0.020213034, -0.4437569, -1.190224, -0.24795642, -0.6301681, 0.034141157, 0.5418704, -0.023675404, 0.33548874, 1.2578781, 0.055028643, -0.046075344, -0.05018833, -0.7410846, 2.4747372, -0.083838314, 0.2624639, 0.020312529, -0.005510151, 0.48865184, -0.93271583, 1.6438514, -0.042483553, 0.743073, 0.002667105, 0.06613077, 0.011289125, 1.3770477, 0.056610443, -0.71828866, 0.0030509639, -0.07095526, 0.056513328, 0.0039335336, -0.055439617, 0.02919435, -0.06928821, 0.009272617, -0.044208, 0.039166223, 0.06652807, 0.0016121796, -0.02265744, 0.06129951, -0.06386759, 0.007986885, -0.033345994, 0.044162575, 0.046718415, -0.014860654, -0.028865566, 0.052660763, -0.06766554, 0.028501375, -0.0720371, -0.011942378, 0.045137327, -0.017636998, -0.07648483, -0.016409671, 0.0093834, -0.05783192], "split_indices": [172, 149, 189, 166, 139, 163, 115, 204, 168, 133, 122, 152, 224, 128, 0, 128, 183, 128, 68, 134, 71, 159, 132, 116, 235, 0, 130, 131, 187, 133, 0, 156, 0, 122, 143, 0, 0, 0, 114, 50, 168, 129, 0, 187, 151, 129, 62, 212, 118, 0, 0, 0, 191, 0, 114, 0, 0, 0, 0, 0, 0, 0, 0, 0, 0, 0, 0, 0, 0, 0, 0, 0, 0, 0, 0, 0, 0, 0, 0, 0, 0, 0, 0, 0, 0, 0, 0], "split_type": [0, 0, 0, 0, 0, 0, 0, 0, 0, 0, 0, 0, 0, 0, 0, 0, 0, 0, 0, 0, 0, 0, 0, 0, 0, 0, 0, 0, 0, 0, 0, 0, 0, 0, 0, 0, 0, 0, 0, 0, 0, 0, 0, 0, 0, 0, 0, 0, 0, 0, 0, 0, 0, 0, 0, 0, 0, 0, 0, 0, 0, 0, 0, 0, 0, 0, 0, 0, 0, 0, 0, 0, 0, 0, 0, 0, 0, 0, 0, 0, 0, 0, 0, 0, 0, 0, 0], "sum_hessian": [234.60251, 154.23079, 80.37172, 51.15799, 103.07281, 44.74098, 35.630737, 27.808064, 23.349926, 56.449245, 46.623566, 37.135998, 7.604981, 34.332127, 1.298609, 7.648527, 20.159534, 19.390715, 3.9592109, 17.675072, 38.774174, 8.009982, 38.613583, 16.594215, 20.541784, 1.3020844, 6.3028965, 29.309559, 5.0225687, 6.0119886, 1.6365389, 18.805033, 1.3545028, 5.876799, 13.513915, 2.7385046, 1.2207062, 2.5541174, 15.1209545, 32.05919, 6.714984, 6.4529986, 1.5569837, 9.813657, 28.799925, 9.115775, 7.478439, 18.144423, 2.3973622, 1.1851755, 5.117721, 1.1722698, 28.13729, 1.4407659, 3.5818026, 1.4335471, 4.578441, 14.436502, 4.36853, 2.1542552, 3.7225442, 12.32046, 1.1934545, 1.8249587, 13.295996, 30.870304, 1.1888835, 3.3225307, 3.3924532, 5.2462873, 1.2067114, 7.7882915, 2.0253658, 22.619566, 6.180358, 2.8799143, 6.2358613, 4.9721007, 2.5063384, 13.43661, 4.7078123, 1.0734979, 1.3238643, 25.767586, 2.3697045, 1.192594, 2.3892086], "tree_param": {"num_deleted": "0", "num_feature": "246", "num_nodes": "87", "size_leaf_vector": "1"}}, {"base_weights": [-0.0017944565, 0.17547342, -0.9846397, -0.056885824, 0.76593655, 0.039311375, -1.1177876, 0.72794294, -0.21468948, -0.4160132, 0.9211489, -1.3244609, -0.31151778, -0.4925012, 0.9477336, -0.50097924, 0.26384664, -0.060960915, 0.33175182, -0.49979278, 1.0546497, -1.4063914, -0.4925127, 0.053867508, -0.78130126, -0.055529267, 0.023583218, 1.238889, -0.035016578, -0.65147036, 0.55071723, 0.6284638, -0.36432934, 0.04228963, -0.02164247, -0.07142565, 0.050130874, -0.02309814, 1.1047926, -1.4549466, -0.007456834, -0.048427977, 0.01559739, -0.06273816, 0.009825059, 0.06585841, 0.0047858153, 0.048063334, -0.025503019, 0.0078760935, -0.04359826, 0.06256924, -0.056512576, 0.040615372, -0.035345867, -0.04154646, 0.008294535, 0.059481926, 0.0066319588, -0.07516505, -0.009539039], "categories": [], "categories_nodes": [], "categories_segments": [], "categories_sizes": [], "default_left": [0, 0, 0, 0, 0, 0, 0, 0, 0, 0, 0, 0, 0, 0, 0, 0, 0, 0, 0, 0, 0, 0, 0, 0, 0, 0, 0, 0, 0, 0, 0, 0, 0, 0, 0, 0, 0, 0, 0, 0, 0, 0, 0, 0, 0, 0, 0, 0, 0, 0, 0, 0, 0, 0, 0, 0, 0, 0, 0, 0, 0], "id": 9, "left_children": [1, 3, 5, 7, 9, -1, 11, 13, 15, 17, 19, 21, 23, 25, 27, 29, 31, -1, 33, 35, 37, 39, 41, -1, 43, -1, -1, 45, 47, 49, 51, 53, 55, -1, -1, -1, -1, -1, 57, 59, -1, -1, -1, -1, -1, -1, -1, -1, -1, -1, -1, -1, -1, -1, -1, -1, -1, -1, -1, -1, -1], "loss_changes": [40.13061, 26.822914, 9.21423, 17.506317, 10.55368, 0.0, 4.958378, 6.854391, 16.302937, 4.707861, 9.905506, 0.8917656, 6.1512485, 3.0887024, 6.014183, 12.11562, 10.480412, 0.0, 2.119335, 8.2212105, 4.0204697, 1.0296516, 1.8927729, 0.0, 3.476447, 0.0, 0.0, 1.1536236, 3.0799823, 11.887209, 12.909551, 7.6342106, 4.392294, 0.0, 0.0, 0.0, 0.0, 0.0, 3.35738, 0.88866806, 0.0, 0.0, 0.0, 0.0, 0.0, 0.0, 0.0, 0.0, 0.0, 0.0, 0.0, 0.0, 0.0, 0.0, 0.0, 0.0, 0.0, 0.0, 0.0, 0.0, 0.0], "parents": [2147483647, 0, 0, 1, 1, 2, 2, 3, 3, 4, 4, 6, 6, 7, 7, 8, 8, 9, 9, 10, 10, 11, 11, 12, 12, 13, 13, 14, 14, 15, 15, 16, 16, 18, 18, 19, 19, 20, 20, 21, 21, 22, 22, 24, 24, 27, 27, 28, 28, 29, 29, 30, 30, 31, 31, 32, 32, 38, 38, 39, 39], "right_children": [2, 4, 6, 8, 10, -1, 12, 14, 16, 18, 20, 22, 24, 26, 28, 30, 32, -1, 34, 36, 38, 40, 42, -1, 44, -1, -1, 46, 48, 50, 52, 54, 56, -1, -1, -1, -1, -1, 58, 60, -1, -1, -1, -1, -1, -1, -1, -1, -1, -1, -1, -1, -1, -1, -1, -1, -1, -1, -1, -1, -1], "split_conditions": [0.8294254, 0.697822, -0.82702684, -0.9966401, -0.94695944, 0.039311375, 2.4747372, -1.097814, 0.14245251, -0.9733956, -0.8465721, 3.0202634, -0.024112778, -0.084334806, 0.38369247, 2.0682228, -0.69158924, -0.060960915, 1.2811255, -0.71490294, -1.8147984, 7.342797, -1.249883, 0.053867508, 3.2814415, -0.055529267, 0.023583218, 2.2840712, -1.3709812, -0.44784296, -0.34846917, 1.1115035, -0.76462626, 0.04228963, -0.02164247, -0.07142565, 0.050130874, -0.02309814, -0.1373639, 3.617623, -0.007456834, -0.048427977, 0.01559739, -0.06273816, 0.009825059, 0.06585841, 0.0047858153, 0.048063334, -0.025503019, 0.0078760935, -0.04359826, 0.06256924, -0.056512576, 0.040615372, -0.035345867, -0.04154646, 0.008294535, 0.059481926, 0.0066319588, -0.07516505, -0.009539039], "split_indices": [134, 120, 119, 120, 118, 0, 50, 120, 191, 185, 130, 175, 189, 187, 176, 187, 186, 0, 80, 185, 116, 223, 116, 0, 28, 0, 0, 41, 129, 116, 130, 118, 129, 0, 0, 0, 0, 0, 194, 142, 0, 0, 0, 0, 0, 0, 0, 0, 0, 0, 0, 0, 0, 0, 0, 0, 0, 0, 0, 0, 0], "split_type": [0, 0, 0, 0, 0, 0, 0, 0, 0, 0, 0, 0, 0, 0, 0, 0, 0, 0, 0, 0, 0, 0, 0, 0, 0, 0, 0, 0, 0, 0, 0, 0, 0, 0, 0, 0, 0, 0, 0, 0, 0, 0, 0, 0, 0, 0, 0, 0, 0, 0, 0, 0, 0, 0, 0, 0, 0, 0, 0, 0, 0], "sum_hessian": [227.87923, 193.66852, 34.210712, 139.50484, 54.163685, 1.9968346, 32.213875, 22.64322, 116.86161, 6.017275, 48.14641, 25.030909, 7.182968, 3.196741, 19.44648, 73.21935, 43.642258, 2.661595, 3.3556798, 3.8350024, 44.31141, 22.048851, 2.9820566, 1.4348432, 5.748125, 1.9186401, 1.2781008, 14.879354, 4.567125, 64.46978, 8.749579, 27.714464, 15.9277935, 2.0213363, 1.3343434, 2.4415164, 1.3934863, 1.0914818, 43.21993, 21.00101, 1.0478408, 1.8233771, 1.1586795, 3.7509158, 1.9972092, 13.701462, 1.1778922, 1.0761453, 3.4909797, 13.772127, 50.69765, 6.397851, 2.3517284, 24.770823, 2.9436414, 8.270828, 7.6569657, 39.450275, 3.7696502, 19.968931, 1.0320786], "tree_param": {"num_deleted": "0", "num_feature": "246", "num_nodes": "61", "size_leaf_vector": "1"}}, {"base_weights": [-0.007979181, 0.40824613, -0.43713763, 0.6565651, 0.0033385456, -0.13798068, -0.9538851, -0.29432708, 0.82675135, -0.3639233, 0.49030733, -0.8767133, 0.028309938, -1.1110688, 0.32319668, 0.44657052, -1.1911435, 0.93261313, -0.54607284, -0.12702893, -0.06697352, -0.49701288, 0.8915363, -0.06247576, -1.2858585, 0.19866824, -0.8046865, -1.3172112, -0.5151608, 0.05718519, -0.046474505, -0.030331422, 0.8725918, -0.011145007, -0.06701636, 0.46424928, 1.192502, -1.0936276, 0.038346883, 0.11038484, -0.0657272, -0.062259924, 0.2395548, 1.0618962, -0.012195316, -0.689048, 0.05226448, -0.006474002, -0.070300095, 0.02198563, 1.058049, -0.07025785, 0.6031587, -1.3907325, -0.0028624707, -0.98758197, 0.4769339, -0.0061352067, 0.06350241, 0.030154875, -0.023834834, 0.06635338, 0.014298076, -0.063017845, -0.013469105, 0.026302878, -0.041059665, -0.023942484, 0.04075476, -0.007865604, 0.059530806, 0.00058021065, -0.053410858, -0.027075125, 0.019647725, -0.0075052506, 0.06823497, -0.01250968, 0.05300615, -0.07384859, -0.024098177, -0.07036266, 0.016142976, 0.058330722, -0.022004826], "categories": [], "categories_nodes": [], "categories_segments": [], "categories_sizes": [], "default_left": [0, 0, 0, 0, 0, 0, 0, 0, 0, 0, 0, 0, 0, 0, 0, 0, 0, 0, 0, 0, 0, 0, 0, 0, 0, 0, 0, 0, 0, 0, 0, 0, 0, 0, 0, 0, 0, 0, 0, 0, 0, 0, 0, 0, 0, 0, 0, 0, 0, 0, 0, 0, 0, 0, 0, 0, 0, 0, 0, 0, 0, 0, 0, 0, 0, 0, 0, 0, 0, 0, 0, 0, 0, 0, 0, 0, 0, 0, 0, 0, 0, 0, 0, 0, 0], "id": 10, "left_children": [1, 3, 5, 7, 9, 11, 13, 15, 17, 19, 21, 23, 25, 27, 29, 31, 33, 35, 37, 39, -1, 41, 43, 45, 47, 49, 51, 53, 55, -1, -1, -1, 57, -1, -1, 59, 61, 63, -1, 65, -1, -1, 67, 69, -1, 71, -1, -1, -1, 73, 75, -1, 77, 79, -1, 81, 83, -1, -1, -1, -1, -1, -1, -1, -1, -1, -1, -1, -1, -1, -1, -1, -1, -1, -1, -1, -1, -1, -1, -1, -1, -1, -1, -1, -1], "loss_changes": [41.846626, 11.877695, 17.605482, 12.188879, 8.475678, 9.250156, 8.876152, 8.44955, 9.657623, 5.891517, 8.5871315, 4.386675, 8.839891, 3.7723656, 6.544156, 3.755135, 0.36448288, 6.4175797, 4.5025625, 6.6942587, 0.0, 3.9708674, 3.237874, 4.677453, 0.92324734, 7.7699757, 9.851664, 2.300953, 5.894615, 0.0, 0.0, 0.0, 2.467802, 0.0, 0.0, 3.265688, 3.9646988, 0.06136608, 0.0, 8.091179, 0.0, 0.0, 2.0933323, 2.3757572, 0.0, 1.2696292, 0.0, 0.0, 0.0, 9.454298, 3.570366, 0.0, 1.830428, 1.1017647, 0.0, 5.0499783, 3.3080251, 0.0, 0.0, 0.0, 0.0, 0.0, 0.0, 0.0, 0.0, 0.0, 0.0, 0.0, 0.0, 0.0, 0.0, 0.0, 0.0, 0.0, 0.0, 0.0, 0.0, 0.0, 0.0, 0.0, 0.0, 0.0, 0.0, 0.0, 0.0], "parents": [2147483647, 0, 0, 1, 1, 2, 2, 3, 3, 4, 4, 5, 5, 6, 6, 7, 7, 8, 8, 9, 9, 10, 10, 11, 11, 12, 12, 13, 13, 14, 14, 15, 15, 16, 16, 17, 17, 18, 18, 19, 19, 21, 21, 22, 22, 23, 23, 24, 24, 25, 25, 26, 26, 27, 27, 28, 28, 32, 32, 35, 35, 36, 36, 37, 37, 39, 39, 42, 42, 43, 43, 45, 45, 49, 49, 50, 50, 52, 52, 53, 53, 55, 55, 56, 56], "right_children": [2, 4, 6, 8, 10, 12, 14, 16, 18, 20, 22, 24, 26, 28, 30, 32, 34, 36, 38, 40, -1, 42, 44, 46, 48, 50, 52, 54, 56, -1, -1, -1, 58, -1, -1, 60, 62, 64, -1, 66, -1, -1, 68, 70, -1, 72, -1, -1, -1, 74, 76, -1, 78, 80, -1, 82, 84, -1, -1, -1, -1, -1, -1, -1, -1, -1, -1, -1, -1, -1, -1, -1, -1, -1, -1, -1, -1, -1, -1, -1, -1, -1, -1, -1, -1], "split_conditions": [-0.1737617, -0.46521088, 1.9474926, -0.93462193, 0.15903701, -0.028087074, 5.3187304, 0.3077594, 0.84848946, 0.004848245, -1.229402, -0.5060128, 2.1689322, 2.4747372, 1.1380821, -0.43006665, 0.88924736, -0.5369664, 2.0717258, 0.34358257, -0.06697352, 0.3857722, 1.0556351, 0.5671134, -0.9571473, 1.1780869, 1.1670506, 0.29437435, 0.5892587, 0.05718519, -0.046474505, -0.030331422, -0.8159841, -0.011145007, -0.06701636, -0.19989975, 0.27747366, 0.35957476, 0.038346883, 0.70195776, -0.0657272, -0.062259924, -0.28273827, -0.7115506, -0.012195316, 0.50568676, 0.05226448, -0.006474002, -0.070300095, -0.07030732, -1.0132303, -0.07025785, -0.4929995, 1.4933143, -0.0028624707, 2.87394, 0.26557705, -0.0061352067, 0.06350241, 0.030154875, -0.023834834, 0.06635338, 0.014298076, -0.063017845, -0.013469105, 0.026302878, -0.041059665, -0.023942484, 0.04075476, -0.007865604, 0.059530806, 0.00058021065, -0.053410858, -0.027075125, 0.019647725, -0.0075052506, 0.06823497, -0.01250968, 0.05300615, -0.07384859, -0.024098177, -0.07036266, 0.016142976, 0.058330722, -0.022004826], "split_indices": [172, 139, 66, 128, 186, 192, 244, 193, 113, 186, 119, 139, 200, 50, 143, 167, 102, 154, 231, 141, 0, 150, 128, 172, 187, 162, 94, 114, 147, 0, 0, 0, 166, 0, 0, 166, 151, 173, 0, 156, 0, 0, 121, 149, 0, 153, 0, 0, 0, 128, 121, 0, 124, 116, 0, 230, 179, 0, 0, 0, 0, 0, 0, 0, 0, 0, 0, 0, 0, 0, 0, 0, 0, 0, 0, 0, 0, 0, 0, 0, 0, 0, 0, 0, 0], "split_type": [0, 0, 0, 0, 0, 0, 0, 0, 0, 0, 0, 0, 0, 0, 0, 0, 0, 0, 0, 0, 0, 0, 0, 0, 0, 0, 0, 0, 0, 0, 0, 0, 0, 0, 0, 0, 0, 0, 0, 0, 0, 0, 0, 0, 0, 0, 0, 0, 0, 0, 0, 0, 0, 0, 0, 0, 0, 0, 0, 0, 0, 0, 0, 0, 0, 0, 0, 0, 0, 0, 0, 0, 0, 0, 0, 0, 0, 0, 0, 0, 0, 0, 0, 0, 0], "sum_hessian": [232.25348, 117.80976, 114.443726, 72.48695, 45.322803, 73.407166, 41.036556, 10.804007, 61.68295, 25.86402, 19.458786, 12.813485, 60.59368, 36.724754, 4.311801, 6.1301646, 4.673842, 57.632286, 4.050662, 21.802408, 4.06161, 5.481725, 13.977061, 4.7525578, 8.060927, 51.037434, 9.556251, 26.261786, 10.46297, 2.7061236, 1.6056775, 1.5758123, 4.5543523, 1.0464622, 3.62738, 21.698689, 35.933598, 3.0302322, 1.02043, 18.85555, 2.9468575, 2.444198, 3.0375273, 12.286466, 1.690596, 3.3346658, 1.417892, 1.0325638, 7.0283637, 43.28109, 7.756341, 6.7501388, 2.8061116, 24.640787, 1.6209986, 7.1592054, 3.3037643, 1.4251698, 3.1291826, 19.313997, 2.3846912, 30.789118, 5.1444807, 1.9794085, 1.0508237, 13.413196, 5.442355, 1.3485199, 1.6890074, 1.0778912, 11.208574, 1.4187229, 1.9159429, 16.892595, 26.388496, 1.6074889, 6.1488523, 1.0600976, 1.7460141, 21.83357, 2.8072176, 5.4244485, 1.7347565, 1.7925242, 1.5112401], "tree_param": {"num_deleted": "0", "num_feature": "246", "num_nodes": "85", "size_leaf_vector": "1"}}, {"base_weights": [0.024243545, 0.35633004, -0.61509275, -0.055379085, 0.6764361, -0.8381072, 0.030741407, -0.69622904, 0.26435292, 0.7852932, -0.71283454, -1.072301, -0.10316364, -0.849654, 0.4816853, -1.1673998, -0.13701703, -0.20899774, 0.8217325, 0.8529598, -0.71111965, 0.23041736, -0.06615108, -1.183426, 0.07041064, 0.78622913, -0.45461467, -0.0, -0.062286325, 0.8763697, -0.79829216, 0.015144852, -1.3712174, 0.38778087, -0.9901066, -0.4141853, 0.05112629, 1.025346, -0.03960595, 0.9411107, -0.22371492, -0.058154445, 0.007085416, 0.04396866, -0.020658445, 0.005777692, -1.259569, 0.04914491, -0.04819884, 0.06110372, -0.0133527545, -0.9258599, 0.5145242, 0.011317521, -0.011586479, 1.1791098, -0.11446782, -0.0061649336, -0.048110608, -0.00760836, -0.07389061, 0.04840599, -0.017708827, -0.007663866, -0.058155783, -0.032926716, 0.029664626, 0.05683012, -0.019387886, 0.014124247, 0.05422728, -0.05969398, 0.01880037, -0.06573684, 0.0015797279, -0.05895851, 0.013572504, -0.021757593, 0.06092949, 0.06720137, -0.0, -0.048513707, 0.045676265], "categories": [], "categories_nodes": [], "categories_segments": [], "categories_sizes": [], "default_left": [0, 0, 0, 0, 0, 0, 0, 0, 0, 0, 0, 0, 0, 0, 0, 0, 0, 0, 0, 0, 0, 0, 0, 0, 0, 0, 0, 0, 0, 0, 0, 0, 0, 0, 0, 0, 0, 0, 0, 0, 0, 0, 0, 0, 0, 0, 0, 0, 0, 0, 0, 0, 0, 0, 0, 0, 0, 0, 0, 0, 0, 0, 0, 0, 0, 0, 0, 0, 0, 0, 0, 0, 0, 0, 0, 0, 0, 0, 0, 0, 0, 0, 0], "id": 11, "left_children": [1, 3, 5, 7, 9, 11, 13, 15, 17, 19, 21, 23, 25, 27, 29, 31, 33, 35, 37, 39, 41, 43, -1, 45, 47, 49, 51, 53, -1, 55, 57, -1, 59, 61, 63, 65, -1, 67, -1, 69, 71, -1, -1, -1, -1, -1, 73, -1, -1, -1, -1, 75, 77, -1, -1, 79, 81, -1, -1, -1, -1, -1, -1, -1, -1, -1, -1, -1, -1, -1, -1, -1, -1, -1, -1, -1, -1, -1, -1, -1, -1, -1, -1], "loss_changes": [47.351357, 19.46211, 11.08086, 13.556423, 13.099155, 9.546085, 8.474249, 5.514703, 11.847084, 8.456848, 4.1429987, 5.6365395, 4.991835, 2.4423842, 7.8852024, 4.0365086, 5.505325, 6.554821, 7.5769386, 7.358631, 1.7430236, 1.8016415, 0.0, 4.1364555, 5.3499265, 2.494649, 5.7318106, 0.22420406, 0.0, 3.659852, 0.19460869, 0.0, 0.98176193, 3.6961622, 0.3647046, 5.760473, 0.0, 3.456812, 0.0, 6.093704, 4.2337475, 0.0, 0.0, 0.0, 0.0, 0.0, 2.8181686, 0.0, 0.0, 0.0, 0.0, 2.8701148, 3.4895694, 0.0, 0.0, 1.6359062, 3.972314, 0.0, 0.0, 0.0, 0.0, 0.0, 0.0, 0.0, 0.0, 0.0, 0.0, 0.0, 0.0, 0.0, 0.0, 0.0, 0.0, 0.0, 0.0, 0.0, 0.0, 0.0, 0.0, 0.0, 0.0, 0.0, 0.0], "parents": [2147483647, 0, 0, 1, 1, 2, 2, 3, 3, 4, 4, 5, 5, 6, 6, 7, 7, 8, 8, 9, 9, 10, 10, 11, 11, 12, 12, 13, 13, 14, 14, 15, 15, 16, 16, 17, 17, 18, 18, 19, 19, 20, 20, 21, 21, 23, 23, 24, 24, 25, 25, 26, 26, 27, 27, 29, 29, 30, 30, 32, 32, 33, 33, 34, 34, 35, 35, 37, 37, 39, 39, 40, 40, 46, 46, 51, 51, 52, 52, 55, 55, 56, 56], "right_children": [2, 4, 6, 8, 10, 12, 14, 16, 18, 20, 22, 24, 26, 28, 30, 32, 34, 36, 38, 40, 42, 44, -1, 46, 48, 50, 52, 54, -1, 56, 58, -1, 60, 62, 64, 66, -1, 68, -1, 70, 72, -1, -1, -1, -1, -1, 74, -1, -1, -1, -1, 76, 78, -1, -1, 80, 82, -1, -1, -1, -1, -1, -1, -1, -1, -1, -1, -1, -1, -1, -1, -1, -1, -1, -1, -1, -1, -1, -1, -1, -1, -1, -1], "split_conditions": [0.09789246, -0.094050534, 0.032133125, -0.7646051, 0.66371304, 1.5740308, 0.1214535, 0.6247656, 0.40566874, 1.471316, -0.30224702, 1.4096617, 0.252467, -0.3200759, -0.3678431, -1.3518156, 1.0214828, 0.35964072, 2.3233721, 1.7178665, 0.85940117, -0.33491707, -0.06615108, -0.8697357, 1.886943, 1.7310091, 0.8809374, 0.76677865, -0.062286325, 2.1139724, -0.07910062, 0.015144852, -0.66102505, -0.4784922, -1.8051757, -0.08470488, 0.05112629, 1.09587, -0.03960595, -0.7766911, -0.10264429, -0.058154445, 0.007085416, 0.04396866, -0.020658445, 0.005777692, 3.135483, 0.04914491, -0.04819884, 0.06110372, -0.0133527545, 2.931037, 1.119019, 0.011317521, -0.011586479, 0.6359388, 2.6619334, -0.0061649336, -0.048110608, -0.00760836, -0.07389061, 0.04840599, -0.017708827, -0.007663866, -0.058155783, -0.032926716, 0.029664626, 0.05683012, -0.019387886, 0.014124247, 0.05422728, -0.05969398, 0.01880037, -0.06573684, 0.0015797279, -0.05895851, 0.013572504, -0.021757593, 0.06092949, 0.06720137, -0.0, -0.048513707, 0.045676265], "split_indices": [172, 212, 129, 134, 134, 58, 128, 115, 127, 167, 117, 128, 221, 116, 117, 212, 135, 190, 51, 116, 140, 129, 0, 118, 89, 196, 119, 120, 0, 43, 131, 0, 131, 181, 128, 138, 0, 179, 0, 130, 138, 0, 0, 0, 0, 0, 157, 0, 0, 0, 0, 118, 185, 0, 0, 127, 17, 0, 0, 0, 0, 0, 0, 0, 0, 0, 0, 0, 0, 0, 0, 0, 0, 0, 0, 0, 0, 0, 0, 0, 0, 0, 0], "split_type": [0, 0, 0, 0, 0, 0, 0, 0, 0, 0, 0, 0, 0, 0, 0, 0, 0, 0, 0, 0, 0, 0, 0, 0, 0, 0, 0, 0, 0, 0, 0, 0, 0, 0, 0, 0, 0, 0, 0, 0, 0, 0, 0, 0, 0, 0, 0, 0, 0, 0, 0, 0, 0, 0, 0, 0, 0, 0, 0, 0, 0, 0, 0, 0, 0, 0, 0, 0, 0, 0, 0, 0, 0, 0, 0, 0, 0, 0, 0, 0, 0, 0, 0], "sum_hessian": [221.11371, 145.91899, 75.194725, 64.05208, 81.866905, 55.78768, 19.407045, 21.032045, 43.02003, 76.38819, 5.478716, 41.855198, 13.932483, 6.1988544, 13.208191, 10.727261, 10.304785, 23.50457, 19.515463, 73.55875, 2.8294418, 2.3321233, 3.1465924, 38.192944, 3.6622562, 3.5151947, 10.417288, 2.2760842, 3.9227703, 10.396006, 2.812185, 1.1870904, 9.54017, 6.645109, 3.6596751, 20.786203, 2.7183661, 17.707943, 1.807521, 68.19425, 5.364499, 1.6882057, 1.1412361, 1.0561633, 1.27596, 2.0134308, 36.179512, 2.0235922, 1.6386639, 2.4401562, 1.0750384, 7.1085744, 3.3087137, 1.1978358, 1.0782484, 7.8947563, 2.501249, 1.0110601, 1.8011248, 1.0377549, 8.502415, 3.633244, 3.0118651, 1.0491219, 2.6105533, 17.087494, 3.6987102, 16.662508, 1.0454348, 12.851097, 55.343155, 1.7345532, 3.629946, 34.753777, 1.4257362, 5.9487014, 1.1598729, 1.5107954, 1.7979183, 6.7514453, 1.143311, 1.4486605, 1.0525887], "tree_param": {"num_deleted": "0", "num_feature": "246", "num_nodes": "83", "size_leaf_vector": "1"}}, {"base_weights": [0.006009269, 0.29909855, -0.6172179, -0.16616169, 0.56199324, -0.2660413, -1.1705513, 0.22502519, -0.74005973, 0.68882155, -0.1550737, -0.5380622, 0.69132316, -1.2450525, 0.005451402, -0.9371849, 0.4570068, -0.9070553, 0.47227883, 0.20191585, 0.86179954, -0.479607, 0.050873917, -0.9384758, 0.10819932, 1.059904, -0.0008030317, 0.0065727546, -1.3135983, 0.023410277, -0.07039448, 0.77739865, -0.30055544, -1.1563264, 0.011923319, -0.012239193, 0.04738271, -0.5922585, 0.5423993, 0.9267856, -0.517416, 0.6320295, -0.90167606, -1.1783406, -0.14267735, 0.8025589, -0.3875773, -0.008841624, 0.066165015, -0.034330633, 0.036618456, -0.06984807, -0.4288545, 0.04831602, -0.025208233, -0.031136736, 0.044958428, -0.022816528, -0.07435217, -0.04993496, 0.04219279, -0.054910224, 0.04718978, 0.05662022, 5.6327106e-05, 0.048366696, -0.014855521, 0.006011483, -0.047769237, -0.001665695, 0.051309, -0.004196475, -0.07302394, -0.06758145, 0.010195517, -0.03541818, 0.046012294, -0.0424159, 0.06619518, -0.060683757, 0.012187498, 0.016520124, -0.04654092], "categories": [], "categories_nodes": [], "categories_segments": [], "categories_sizes": [], "default_left": [0, 0, 0, 0, 0, 0, 0, 0, 0, 0, 0, 0, 0, 0, 0, 0, 0, 0, 0, 0, 0, 0, 0, 0, 0, 0, 0, 0, 0, 0, 0, 0, 0, 0, 0, 0, 0, 0, 0, 0, 0, 0, 0, 0, 0, 0, 0, 0, 0, 0, 0, 0, 0, 0, 0, 0, 0, 0, 0, 0, 0, 0, 0, 0, 0, 0, 0, 0, 0, 0, 0, 0, 0, 0, 0, 0, 0, 0, 0, 0, 0, 0, 0], "id": 12, "left_children": [1, 3, 5, 7, 9, 11, 13, 15, 17, 19, 21, 23, 25, 27, -1, 29, 31, 33, 35, 37, 39, 41, -1, 43, 45, 47, 49, -1, 51, -1, -1, 53, 55, 57, 59, -1, -1, 61, 63, 65, 67, 69, 71, 73, 75, 77, 79, -1, -1, -1, -1, -1, 81, -1, -1, -1, -1, -1, -1, -1, -1, -1, -1, -1, -1, -1, -1, -1, -1, -1, -1, -1, -1, -1, -1, -1, -1, -1, -1, -1, -1, -1, -1], "loss_changes": [42.261753, 19.406857, 13.915459, 13.132763, 9.350155, 12.504313, 2.9479408, 9.782123, 5.260826, 6.976837, 6.478771, 9.7509575, 2.8306289, 2.8294678, 0.0, 4.760953, 7.517543, 4.985874, 1.477912, 6.8179693, 6.1780205, 6.7842855, 0.0, 4.0948353, 5.496857, 2.6491818, 2.8188944, 0.0, 1.1203766, 0.0, 0.0, 5.696211, 4.200283, 3.0108852, 5.3916807, 0.0, 0.0, 6.9622855, 5.454721, 3.3672028, 1.1514735, 1.2222801, 4.3088827, 4.5720177, 4.5792756, 6.881039, 5.247752, 0.0, 0.0, 0.0, 0.0, 0.0, 1.8032367, 0.0, 0.0, 0.0, 0.0, 0.0, 0.0, 0.0, 0.0, 0.0, 0.0, 0.0, 0.0, 0.0, 0.0, 0.0, 0.0, 0.0, 0.0, 0.0, 0.0, 0.0, 0.0, 0.0, 0.0, 0.0, 0.0, 0.0, 0.0, 0.0, 0.0], "parents": [2147483647, 0, 0, 1, 1, 2, 2, 3, 3, 4, 4, 5, 5, 6, 6, 7, 7, 8, 8, 9, 9, 10, 10, 11, 11, 12, 12, 13, 13, 15, 15, 16, 16, 17, 17, 18, 18, 19, 19, 20, 20, 21, 21, 23, 23, 24, 24, 25, 25, 26, 26, 28, 28, 31, 31, 32, 32, 33, 33, 34, 34, 37, 37, 38, 38, 39, 39, 40, 40, 41, 41, 42, 42, 43, 43, 44, 44, 45, 45, 46, 46, 52, 52], "right_children": [2, 4, 6, 8, 10, 12, 14, 16, 18, 20, 22, 24, 26, 28, -1, 30, 32, 34, 36, 38, 40, 42, -1, 44, 46, 48, 50, -1, 52, -1, -1, 54, 56, 58, 60, -1, -1, 62, 64, 66, 68, 70, 72, 74, 76, 78, 80, -1, -1, -1, -1, -1, 82, -1, -1, -1, -1, -1, -1, -1, -1, -1, -1, -1, -1, -1, -1, -1, -1, -1, -1, -1, -1, -1, -1, -1, -1, -1, -1, -1, -1, -1, -1], "split_conditions": [0.20655416, -0.45736894, 0.3246616, 0.41298634, 0.66088045, 0.99900687, 1.8325809, -0.7410846, 0.3857722, -0.5061748, 2.1247692, 0.029469281, 0.73263204, -0.39767295, 0.005451402, -0.1809911, 0.62023246, 0.5502693, 0.10194961, -0.035089523, 1.6629401, -0.8000204, 0.050873917, 1.0952704, 0.007084068, 0.1214535, 0.6820564, 0.0065727546, 1.5740308, 0.023410277, -0.07039448, 0.9662277, 0.22817335, -1.0590593, -0.5953195, -0.012239193, 0.04738271, 1.9933853, 0.971076, 3.987159, 0.41321504, 1.6793718, 0.94740933, 2.1244433, 0.62882584, -0.7436615, 0.6193713, -0.008841624, 0.066165015, -0.034330633, 0.036618456, -0.06984807, 2.1864817, 0.04831602, -0.025208233, -0.031136736, 0.044958428, -0.022816528, -0.07435217, -0.04993496, 0.04219279, -0.054910224, 0.04718978, 0.05662022, 5.6327106e-05, 0.048366696, -0.014855521, 0.006011483, -0.047769237, -0.001665695, 0.051309, -0.004196475, -0.07302394, -0.06758145, 0.010195517, -0.03541818, 0.046012294, -0.0424159, 0.06619518, -0.060683757, 0.012187498, 0.016520124, -0.04654092], "split_indices": [172, 149, 189, 193, 132, 163, 126, 114, 150, 132, 45, 177, 113, 126, 0, 121, 116, 147, 113, 120, 176, 119, 0, 182, 169, 128, 141, 0, 58, 0, 0, 225, 186, 212, 172, 0, 0, 49, 114, 15, 113, 85, 212, 164, 146, 193, 149, 0, 0, 0, 0, 0, 46, 0, 0, 0, 0, 0, 0, 0, 0, 0, 0, 0, 0, 0, 0, 0, 0, 0, 0, 0, 0, 0, 0, 0, 0, 0, 0, 0, 0, 0, 0], "split_type": [0, 0, 0, 0, 0, 0, 0, 0, 0, 0, 0, 0, 0, 0, 0, 0, 0, 0, 0, 0, 0, 0, 0, 0, 0, 0, 0, 0, 0, 0, 0, 0, 0, 0, 0, 0, 0, 0, 0, 0, 0, 0, 0, 0, 0, 0, 0, 0, 0, 0, 0, 0, 0, 0, 0, 0, 0, 0, 0, 0, 0, 0, 0, 0, 0, 0, 0, 0, 0, 0, 0, 0, 0, 0, 0, 0, 0, 0, 0, 0, 0, 0, 0], "sum_hessian": [229.53038, 156.57658, 72.9538, 56.52627, 100.05031, 45.645874, 27.307924, 33.871826, 22.654444, 85.165794, 14.884514, 35.968414, 9.677461, 25.9048, 1.4031255, 5.0584416, 28.813385, 20.205502, 2.4489422, 23.044516, 62.12128, 12.187556, 2.696957, 22.024776, 13.943636, 6.062227, 3.6152341, 1.116053, 24.788746, 1.2171724, 3.8412693, 20.323774, 8.48961, 15.776658, 4.4288435, 1.0858076, 1.3631347, 6.6050763, 16.439438, 59.70847, 2.4128127, 3.1518636, 9.035693, 16.457804, 5.5669727, 5.6347723, 8.308864, 1.0554609, 5.006766, 1.9712365, 1.6439978, 22.021816, 2.7669294, 17.995047, 2.3287287, 7.137233, 1.3523772, 5.92275, 9.853908, 1.8548874, 2.5739563, 5.231931, 1.3731451, 7.2547064, 9.184732, 58.07572, 1.6327449, 1.1848816, 1.2279311, 1.418739, 1.7331245, 4.2075515, 4.828141, 14.708363, 1.7494421, 3.9124324, 1.6545403, 1.155815, 4.478957, 3.2682738, 5.04059, 1.1579733, 1.6089561], "tree_param": {"num_deleted": "0", "num_feature": "246", "num_nodes": "83", "size_leaf_vector": "1"}}, {"base_weights": [-0.033248976, 0.30914092, -0.5280211, -0.041474868, 0.6306802, 0.049609464, -0.72861964, 0.34692252, -0.38292047, 0.8729859, -0.48981842, -0.79269284, 0.36877498, -1.0695893, -0.36794186, -0.44191974, 0.67695785, -0.047513988, -0.074149154, -0.021527385, 0.97857684, 0.03863609, -0.8394993, -1.0941111, 0.016952146, 1.1374682, -0.07331246, 0.00067160605, -1.1404339, -0.73620236, 0.33706897, -0.062746756, 0.4218012, 0.8793509, -0.0525275, -0.950287, 0.29711014, -0.054235905, 0.79521686, -0.014606558, 1.0294816, -1.2273946, -0.0, -0.06277126, -0.0067926385, 0.0034323235, 0.06614029, 0.9039615, -0.5767813, -0.16977814, -1.2325271, -0.95826393, 0.44262266, 0.8717151, -0.91278946, 0.043705206, -0.023991797, 0.019606104, 0.06552653, -0.05898715, 0.00799121, 0.03234318, -0.0273235, -0.0, 0.052776992, 0.0533214, -0.0042058085, -0.06930397, -0.0034798626, 0.047447126, -0.047425143, 0.058073908, 0.0017941553, -0.050326914, 0.04880416, 0.048364118, -0.047161333, -0.06690147, -0.021306373, -0.059174623, -0.0011120737, 0.04818083, -0.019927477, 0.05846211, 0.0030951626, -0.008069742, -0.053917404], "categories": [], "categories_nodes": [], "categories_segments": [], "categories_sizes": [], "default_left": [0, 0, 0, 0, 0, 0, 0, 0, 0, 0, 0, 0, 0, 0, 0, 0, 0, 0, 0, 0, 0, 0, 0, 0, 0, 0, 0, 0, 0, 0, 0, 0, 0, 0, 0, 0, 0, 0, 0, 0, 0, 0, 0, 0, 0, 0, 0, 0, 0, 0, 0, 0, 0, 0, 0, 0, 0, 0, 0, 0, 0, 0, 0, 0, 0, 0, 0, 0, 0, 0, 0, 0, 0, 0, 0, 0, 0, 0, 0, 0, 0, 0, 0, 0, 0, 0, 0], "id": 13, "left_children": [1, 3, 5, 7, 9, 11, 13, 15, 17, 19, 21, 23, 25, 27, 29, 31, 33, 35, -1, 37, 39, -1, 41, 43, -1, 45, 47, -1, 49, 51, 53, -1, 55, 57, -1, 59, 61, -1, 63, -1, 65, 67, 69, -1, -1, -1, -1, 71, 73, 75, 77, 79, 81, 83, 85, -1, -1, -1, -1, -1, -1, -1, -1, -1, -1, -1, -1, -1, -1, -1, -1, -1, -1, -1, -1, -1, -1, -1, -1, -1, -1, -1, -1, -1, -1, -1, -1], "loss_changes": [37.486294, 14.813647, 10.595512, 8.529294, 19.02563, 6.7413464, 7.751213, 8.131811, 12.428885, 5.466343, 6.271701, 2.788887, 6.401822, 2.735035, 9.224176, 7.187773, 8.46997, 8.866574, 0.0, 6.8469634, 3.6591568, 0.0, 3.5103211, 0.5758972, 0.0, 1.1205606, 6.620422, 0.0, 2.5101547, 6.5007477, 9.079393, 0.0, 2.5912693, 3.5089998, 0.0, 2.2985692, 6.4115033, 0.0, 0.8668642, 0.0, 2.2089005, 1.088831, 4.7341733, 0.0, 0.0, 0.0, 0.0, 0.8577893, 6.9269304, 4.450651, 1.7176056, 4.017889, 2.307963, 2.0342364, 0.21803737, 0.0, 0.0, 0.0, 0.0, 0.0, 0.0, 0.0, 0.0, 0.0, 0.0, 0.0, 0.0, 0.0, 0.0, 0.0, 0.0, 0.0, 0.0, 0.0, 0.0, 0.0, 0.0, 0.0, 0.0, 0.0, 0.0, 0.0, 0.0, 0.0, 0.0, 0.0, 0.0], "parents": [2147483647, 0, 0, 1, 1, 2, 2, 3, 3, 4, 4, 5, 5, 6, 6, 7, 7, 8, 8, 9, 9, 10, 10, 11, 11, 12, 12, 13, 13, 14, 14, 15, 15, 16, 16, 17, 17, 19, 19, 20, 20, 22, 22, 23, 23, 25, 25, 26, 26, 28, 28, 29, 29, 30, 30, 32, 32, 33, 33, 35, 35, 36, 36, 38, 38, 40, 40, 41, 41, 42, 42, 47, 47, 48, 48, 49, 49, 50, 50, 51, 51, 52, 52, 53, 53, 54, 54], "right_children": [2, 4, 6, 8, 10, 12, 14, 16, 18, 20, 22, 24, 26, 28, 30, 32, 34, 36, -1, 38, 40, -1, 42, 44, -1, 46, 48, -1, 50, 52, 54, -1, 56, 58, -1, 60, 62, -1, 64, -1, 66, 68, 70, -1, -1, -1, -1, 72, 74, 76, 78, 80, 82, 84, 86, -1, -1, -1, -1, -1, -1, -1, -1, -1, -1, -1, -1, -1, -1, -1, -1, -1, -1, -1, -1, -1, -1, -1, -1, -1, -1, -1, -1, -1, -1, -1, -1], "split_conditions": [0.090055585, -0.10450616, -0.46955594, -0.42498654, 0.7833271, -0.93271583, 0.68035173, -1.3078736, 0.07049017, -0.7578133, -0.8159841, -0.08070979, -0.6492497, -1.4403038, -0.32699335, 0.28777882, 0.23662294, -0.7646051, -0.074149154, 1.5740308, -1.9430088, 0.03863609, 0.72046113, 0.82756907, 0.016952146, 0.2768843, -0.04009479, 0.00067160605, -0.2072925, 2.6343422, 1.0449631, -0.062746756, 0.04269095, -0.60415155, -0.0525275, 0.735988, -0.15447147, -0.054235905, 0.32781696, -0.014606558, 1.3920847, 2.8455684, 0.59097475, -0.06277126, -0.0067926385, 0.0034323235, 0.06614029, 2.2498925, 0.79911655, -0.50855476, 2.1193552, 0.9126073, 1.5376468, 0.8754937, 0.12232872, 0.043705206, -0.023991797, 0.019606104, 0.06552653, -0.05898715, 0.00799121, 0.03234318, -0.0273235, -0.0, 0.052776992, 0.0533214, -0.0042058085, -0.06930397, -0.0034798626, 0.047447126, -0.047425143, 0.058073908, 0.0017941553, -0.050326914, 0.04880416, 0.048364118, -0.047161333, -0.06690147, -0.021306373, -0.059174623, -0.0011120737, 0.04818083, -0.019927477, 0.05846211, 0.0030951626, -0.008069742, -0.053917404], "split_indices": [153, 212, 159, 130, 132, 129, 119, 130, 140, 133, 166, 189, 131, 113, 190, 131, 178, 134, 0, 58, 119, 0, 126, 118, 0, 113, 205, 0, 159, 36, 118, 0, 129, 117, 0, 119, 189, 0, 149, 0, 186, 180, 118, 0, 0, 0, 0, 237, 165, 125, 69, 142, 119, 185, 183, 0, 0, 0, 0, 0, 0, 0, 0, 0, 0, 0, 0, 0, 0, 0, 0, 0, 0, 0, 0, 0, 0, 0, 0, 0, 0, 0, 0, 0, 0, 0, 0], "split_type": [0, 0, 0, 0, 0, 0, 0, 0, 0, 0, 0, 0, 0, 0, 0, 0, 0, 0, 0, 0, 0, 0, 0, 0, 0, 0, 0, 0, 0, 0, 0, 0, 0, 0, 0, 0, 0, 0, 0, 0, 0, 0, 0, 0, 0, 0, 0, 0, 0, 0, 0, 0, 0, 0, 0, 0, 0, 0, 0, 0, 0, 0, 0, 0, 0, 0, 0, 0, 0, 0, 0, 0, 0, 0, 0, 0, 0, 0, 0, 0, 0, 0, 0, 0, 0, 0, 0], "sum_hessian": [219.18938, 129.64566, 89.54372, 62.28658, 67.359085, 23.146559, 66.397156, 28.99528, 33.291298, 55.637684, 11.721404, 5.8667626, 17.279797, 32.9782, 33.418957, 8.363366, 20.631914, 26.381683, 6.9096165, 5.8582864, 49.779396, 2.217878, 9.503526, 4.7289057, 1.1378573, 5.8175693, 11.462227, 1.9878751, 30.990324, 22.016367, 11.40259, 4.134461, 4.228905, 18.959497, 1.6724164, 6.883214, 19.498468, 2.4558017, 3.4024844, 1.659176, 48.12022, 6.2438064, 3.25972, 3.69279, 1.0361153, 1.1419585, 4.6756105, 3.559282, 7.902945, 3.025993, 27.96433, 18.755268, 3.2610977, 8.254261, 3.1483293, 2.9103732, 1.318532, 9.906542, 9.052956, 5.72685, 1.1563638, 14.032319, 5.4661503, 1.1257123, 2.2767723, 46.7029, 1.4173206, 5.2418337, 1.0019726, 1.6678846, 1.5918354, 2.395476, 1.1638057, 6.5158825, 1.3870623, 1.0712411, 1.9547518, 24.036358, 3.9279737, 14.818401, 3.936867, 1.9973336, 1.263764, 5.6215568, 2.6327043, 1.034062, 2.114267], "tree_param": {"num_deleted": "0", "num_feature": "246", "num_nodes": "87", "size_leaf_vector": "1"}}, {"base_weights": [0.0011735248, 0.17352931, -1.0140239, -0.14650992, 0.5690065, -1.1305166, 0.21282022, -0.49947718, 0.160099, 0.6667257, -0.93151784, -1.1989782, 0.011338445, -0.037253525, 0.049964484, 0.72496, -0.7232451, 0.50003207, -0.11052306, 0.7566998, -0.26137522, -0.06336991, 0.0059326007, -0.0059650457, -1.265179, 0.05614239, -0.028400306, -0.1210248, -1.1196054, -0.5111, 0.76021564, -0.43984547, 0.61779624, -0.040691372, 0.8147149, -0.78181684, 0.40117237, -1.3406271, -0.23933241, -0.030034313, 0.03694112, 0.009372946, -0.059518505, 0.030657584, -0.05001662, -0.044681203, 0.045711204, -0.03867959, 0.023175545, -0.039619636, 0.044565845, 0.02117127, 0.05451694, -0.05989799, 0.012083418, 0.049970962, -0.021871224, -0.0037582254, -0.06942039, -0.035138387, 0.014069125], "categories": [], "categories_nodes": [], "categories_segments": [], "categories_sizes": [], "default_left": [0, 0, 0, 0, 0, 0, 0, 0, 0, 0, 0, 0, 0, 0, 0, 0, 0, 0, 0, 0, 0, 0, 0, 0, 0, 0, 0, 0, 0, 0, 0, 0, 0, 0, 0, 0, 0, 0, 0, 0, 0, 0, 0, 0, 0, 0, 0, 0, 0, 0, 0, 0, 0, 0, 0, 0, 0, 0, 0, 0, 0], "id": 14, "left_children": [1, 3, 5, 7, 9, 11, 13, 15, 17, 19, 21, 23, -1, -1, -1, 25, 27, 29, 31, 33, 35, -1, -1, -1, 37, -1, -1, 39, 41, 43, 45, 47, 49, -1, 51, 53, 55, 57, 59, -1, -1, -1, -1, -1, -1, -1, -1, -1, -1, -1, -1, -1, -1, -1, -1, -1, -1, -1, -1, -1, -1], "loss_changes": [38.275906, 23.856035, 4.8677597, 11.39991, 12.941765, 3.0838203, 3.4210684, 13.914552, 5.2838287, 6.9029427, 2.2063704, 1.7148857, 0.0, 0.0, 0.0, 4.799522, 9.739462, 7.0823307, 7.944471, 7.315773, 3.0029912, 0.0, 0.0, 0.0, 1.5512924, 0.0, 0.0, 7.7913575, 2.639637, 3.7911553, 6.07666, 7.251091, 4.6910152, 0.0, 7.0414467, 2.399696, 2.4795578, 1.2079926, 0.98919904, 0.0, 0.0, 0.0, 0.0, 0.0, 0.0, 0.0, 0.0, 0.0, 0.0, 0.0, 0.0, 0.0, 0.0, 0.0, 0.0, 0.0, 0.0, 0.0, 0.0, 0.0, 0.0], "parents": [2147483647, 0, 0, 1, 1, 2, 2, 3, 3, 4, 4, 5, 5, 6, 6, 7, 7, 8, 8, 9, 9, 10, 10, 11, 11, 15, 15, 16, 16, 17, 17, 18, 18, 19, 19, 20, 20, 24, 24, 27, 27, 28, 28, 29, 29, 30, 30, 31, 31, 32, 32, 34, 34, 35, 35, 36, 36, 37, 37, 38, 38], "right_children": [2, 4, 6, 8, 10, 12, 14, 16, 18, 20, 22, 24, -1, -1, -1, 26, 28, 30, 32, 34, 36, -1, -1, -1, 38, -1, -1, 40, 42, 44, 46, 48, 50, -1, 52, 54, 56, 58, 60, -1, -1, -1, -1, -1, -1, -1, -1, -1, -1, -1, -1, -1, -1, -1, -1, -1, -1, -1, -1, -1, -1], "split_conditions": [0.8294254, -0.094050534, 0.019311385, -0.4578049, 1.4932605, 3.387932, 0.5014121, -0.11940628, -0.42498654, 1.6220231, 0.5654259, -0.46316618, 0.011338445, -0.037253525, 0.049964484, -0.38250723, -0.30653155, -1.3078736, 1.9933853, -1.9014344, -0.1815322, -0.06336991, 0.0059326007, -0.0059650457, -0.6301681, 0.05614239, -0.028400306, -0.35209295, -0.9571473, -1.5961931, -2.1627634, 0.96133447, -0.70887256, -0.040691372, -0.5286562, 0.4530184, 0.11470527, -0.48497877, 1.886943, -0.030034313, 0.03694112, 0.009372946, -0.059518505, 0.030657584, -0.05001662, -0.044681203, 0.045711204, -0.03867959, 0.023175545, -0.039619636, 0.044565845, 0.02117127, 0.05451694, -0.05989799, 0.012083418, 0.049970962, -0.021871224, -0.0037582254, -0.06942039, -0.035138387, 0.014069125], "split_indices": [134, 212, 114, 177, 176, 137, 224, 138, 130, 116, 188, 212, 0, 0, 0, 132, 116, 130, 49, 116, 125, 0, 0, 0, 133, 0, 0, 181, 187, 126, 113, 143, 131, 0, 154, 204, 118, 117, 89, 0, 0, 0, 0, 0, 0, 0, 0, 0, 0, 0, 0, 0, 0, 0, 0, 0, 0, 0, 0, 0, 0], "split_type": [0, 0, 0, 0, 0, 0, 0, 0, 0, 0, 0, 0, 0, 0, 0, 0, 0, 0, 0, 0, 0, 0, 0, 0, 0, 0, 0, 0, 0, 0, 0, 0, 0, 0, 0, 0, 0, 0, 0, 0, 0, 0, 0, 0, 0, 0, 0, 0, 0, 0, 0, 0, 0, 0, 0, 0, 0, 0, 0, 0, 0], "sum_hessian": [217.22525, 186.49117, 30.734085, 103.2848, 83.20636, 28.215004, 2.51908, 47.87191, 55.41289, 78.703255, 4.5031033, 27.041351, 1.1736538, 1.1021682, 1.4169116, 6.981748, 40.890163, 24.34922, 31.063671, 72.014305, 6.6889505, 3.3272932, 1.1758103, 1.8114163, 25.229935, 5.4985723, 1.4831758, 16.848537, 24.041624, 4.707211, 19.642008, 21.758545, 9.305125, 2.0399265, 69.97438, 3.72994, 2.9590106, 23.124842, 2.1050935, 11.083413, 5.765124, 1.0774953, 22.964128, 1.2885164, 3.4186947, 1.2088513, 18.433157, 16.07424, 5.684305, 1.1440642, 8.161061, 30.117346, 39.857033, 2.6000211, 1.1299189, 1.6846609, 1.2743496, 1.0111371, 22.113703, 1.0304329, 1.0746607], "tree_param": {"num_deleted": "0", "num_feature": "246", "num_nodes": "61", "size_leaf_vector": "1"}}, {"base_weights": [-0.059179235, 0.23316163, -0.5694175, -0.5019289, 0.33579552, 0.05097318, -0.78485066, -1.197748, 0.16936232, 0.40656754, -0.49485657, -1.0256746, 0.44257137, -0.4672221, -1.1774086, -0.0071810554, -0.0653874, 0.531824, -0.048171207, 0.5206795, -0.22888078, -1.0644143, 0.47388563, -0.05801934, -0.006718773, -0.48637652, 0.82230073, 0.57070154, -0.64527035, -0.36911526, -0.06668147, 0.74788797, -0.0143784555, -0.18246782, 0.619411, 0.2610287, -1.0578797, -0.06607122, 0.0013794348, 0.04734807, -0.015497404, -0.04839121, 0.036986567, 0.38605866, 0.06865969, 0.9361602, -0.015567658, -0.8547035, 0.28686476, 0.35900626, -0.05021527, 0.045049798, -0.0, -0.035604153, 0.035655476, 0.035691854, -0.008201339, -0.017072001, 0.051615566, -0.07174058, 0.01099807, -0.028088603, 0.037026986, 0.059449613, 0.0032383997, -0.051257413, 0.019706069, -0.022736073, 0.048516564, 0.043995835, -0.012102187], "categories": [], "categories_nodes": [], "categories_segments": [], "categories_sizes": [], "default_left": [0, 0, 0, 0, 0, 0, 0, 0, 0, 0, 0, 0, 0, 0, 0, 0, 0, 0, 0, 0, 0, 0, 0, 0, 0, 0, 0, 0, 0, 0, 0, 0, 0, 0, 0, 0, 0, 0, 0, 0, 0, 0, 0, 0, 0, 0, 0, 0, 0, 0, 0, 0, 0, 0, 0, 0, 0, 0, 0, 0, 0, 0, 0, 0, 0, 0, 0, 0, 0, 0, 0], "id": 15, "left_children": [1, 3, 5, 7, 9, 11, 13, 15, 17, 19, 21, 23, 25, 27, 29, -1, -1, 31, -1, 33, 35, 37, 39, -1, -1, 41, 43, 45, 47, 49, -1, 51, -1, 53, 55, 57, 59, -1, -1, -1, -1, -1, -1, 61, -1, 63, -1, 65, 67, 69, -1, -1, -1, -1, -1, -1, -1, -1, -1, -1, -1, -1, -1, -1, -1, -1, -1, -1, -1, -1, -1], "loss_changes": [32.446693, 10.575928, 10.704359, 8.343943, 7.361869, 9.352405, 6.6417847, 0.6697111, 4.3952155, 8.345308, 6.0341864, 0.422925, 6.199115, 6.7347426, 2.5685349, 0.0, 0.0, 1.6694913, 0.0, 6.840166, 7.5730877, 2.0229707, 1.950974, 0.0, 0.0, 3.8641515, 2.189867, 2.122694, 6.143594, 3.0293207, 0.0, 0.82751584, 0.0, 6.4371614, 6.4431343, 5.9493113, 3.7483249, 0.0, 0.0, 0.0, 0.0, 0.0, 0.0, 3.1947896, 0.0, 0.7249861, 0.0, 5.7400875, 3.6103542, 1.3058465, 0.0, 0.0, 0.0, 0.0, 0.0, 0.0, 0.0, 0.0, 0.0, 0.0, 0.0, 0.0, 0.0, 0.0, 0.0, 0.0, 0.0, 0.0, 0.0, 0.0, 0.0], "parents": [2147483647, 0, 0, 1, 1, 2, 2, 3, 3, 4, 4, 5, 5, 6, 6, 7, 7, 8, 8, 9, 9, 10, 10, 11, 11, 12, 12, 13, 13, 14, 14, 17, 17, 19, 19, 20, 20, 21, 21, 22, 22, 25, 25, 26, 26, 27, 27, 28, 28, 29, 29, 31, 31, 33, 33, 34, 34, 35, 35, 36, 36, 43, 43, 45, 45, 47, 47, 48, 48, 49, 49], "right_children": [2, 4, 6, 8, 10, 12, 14, 16, 18, 20, 22, 24, 26, 28, 30, -1, -1, 32, -1, 34, 36, 38, 40, -1, -1, 42, 44, 46, 48, 50, -1, 52, -1, 54, 56, 58, 60, -1, -1, -1, -1, -1, -1, 62, -1, 64, -1, 66, 68, 70, -1, -1, -1, -1, -1, -1, -1, -1, -1, -1, -1, -1, -1, -1, -1, -1, -1, -1, -1, -1, -1], "split_conditions": [0.06356527, -0.8238682, -0.32499343, 0.49423328, 1.1285893, -1.186881, 0.74671304, -0.8580744, 1.2287722, 0.7386722, 0.8437751, 0.104181826, -0.8444381, -1.061324, -0.6793855, -0.0071810554, -0.0653874, -0.51208365, -0.048171207, -0.63015383, 0.3571391, 2.2025383, 1.0471016, -0.05801934, -0.006718773, 0.74605787, 2.1247692, 0.8730611, 0.55401623, -0.8380002, -0.06668147, 0.12105068, -0.0143784555, -0.083838314, 0.8193474, 1.00679, 0.5548967, -0.06607122, 0.0013794348, 0.04734807, -0.015497404, -0.04839121, 0.036986567, -0.1533911, 0.06865969, -0.05627077, -0.015567658, 1.5560884, 0.4530184, 1.886943, -0.05021527, 0.045049798, -0.0, -0.035604153, 0.035655476, 0.035691854, -0.008201339, -0.017072001, 0.051615566, -0.07174058, 0.01099807, -0.028088603, 0.037026986, 0.059449613, 0.0032383997, -0.051257413, 0.019706069, -0.022736073, 0.048516564, 0.043995835, -0.012102187], "split_indices": [172, 134, 130, 120, 192, 212, 134, 120, 121, 176, 166, 137, 120, 120, 149, 0, 0, 150, 0, 131, 151, 192, 151, 0, 0, 176, 45, 119, 120, 114, 0, 188, 0, 168, 179, 191, 188, 0, 0, 0, 0, 0, 0, 185, 0, 130, 0, 159, 204, 89, 0, 0, 0, 0, 0, 0, 0, 0, 0, 0, 0, 0, 0, 0, 0, 0, 0, 0, 0, 0, 0], "split_type": [0, 0, 0, 0, 0, 0, 0, 0, 0, 0, 0, 0, 0, 0, 0, 0, 0, 0, 0, 0, 0, 0, 0, 0, 0, 0, 0, 0, 0, 0, 0, 0, 0, 0, 0, 0, 0, 0, 0, 0, 0, 0, 0, 0, 0, 0, 0, 0, 0, 0, 0, 0, 0, 0, 0, 0, 0, 0, 0, 0, 0, 0, 0, 0, 0, 0, 0, 0, 0, 0, 0], "sum_hessian": [215.40884, 137.16643, 78.24242, 16.208948, 120.95748, 20.244062, 57.998356, 7.647128, 8.561819, 112.04234, 8.915138, 4.8993573, 15.344706, 33.410233, 24.588123, 1.0263531, 6.620775, 6.95515, 1.6066691, 95.27171, 16.770634, 5.6171093, 3.2980287, 3.8963563, 1.0030011, 4.294556, 11.05015, 4.4869304, 28.923302, 4.6308403, 19.957283, 5.669484, 1.2856661, 11.50122, 83.77049, 10.895986, 5.8746476, 4.4510155, 1.1660936, 2.0064917, 1.291537, 3.2935226, 1.0010337, 7.217252, 3.8328977, 3.209274, 1.2776562, 23.772436, 5.150867, 2.2868197, 2.3440206, 4.6147285, 1.0547557, 7.4261727, 4.0750475, 74.95305, 8.817445, 6.3575754, 4.5384107, 4.502065, 1.3725827, 1.7285326, 5.488719, 2.116069, 1.093205, 21.145584, 2.6268523, 2.5607402, 2.5901265, 1.0656582, 1.2211615], "tree_param": {"num_deleted": "0", "num_feature": "246", "num_nodes": "71", "size_leaf_vector": "1"}}, {"base_weights": [-0.0071181334, 0.2547862, -0.52684844, 0.58895534, -0.01946148, -0.16377929, -1.0136932, -0.35901073, 0.758616, -0.14235088, 0.5977899, -0.41606823, 0.7624669, -0.10568642, -1.1659378, -0.805394, 0.0426805, 0.8200902, -0.044492092, -0.6000032, 0.1261453, -0.038703017, 0.9127662, -0.79283035, 0.0046009775, -0.13034669, 1.1031759, 0.80078125, -0.049097084, 0.007656777, -1.2482557, 0.13327828, -1.2098818, 0.08941384, 0.9291896, -0.7331691, 0.046566818, 0.22729093, -0.05549511, 1.0988802, -0.010263312, 0.41492647, -1.1107057, -0.82739997, 0.39868662, -0.044333328, 0.038662914, 0.0061177076, 0.06258311, 0.052657593, 0.0067710676, 0.008869475, -0.06644571, 0.027496336, -0.017189106, -0.010592384, -0.06795533, -0.044879597, 0.032539263, 0.05042079, -0.010574899, -0.04254312, 0.03386526, -0.022679206, 0.019550782, 0.007632033, 0.064734586, 0.046664976, -0.018222842, -0.06246778, 0.0051157703, -0.058222808, 0.010802028, 0.053591497, -0.017667474], "categories": [], "categories_nodes": [], "categories_segments": [], "categories_sizes": [], "default_left": [0, 0, 0, 0, 0, 0, 0, 0, 0, 0, 0, 0, 0, 0, 0, 0, 0, 0, 0, 0, 0, 0, 0, 0, 0, 0, 0, 0, 0, 0, 0, 0, 0, 0, 0, 0, 0, 0, 0, 0, 0, 0, 0, 0, 0, 0, 0, 0, 0, 0, 0, 0, 0, 0, 0, 0, 0, 0, 0, 0, 0, 0, 0, 0, 0, 0, 0, 0, 0, 0, 0, 0, 0, 0, 0], "id": 16, "left_children": [1, 3, 5, 7, 9, 11, 13, 15, 17, 19, 21, 23, 25, 27, 29, 31, -1, 33, -1, 35, 37, -1, 39, 41, 43, 45, 47, 49, -1, -1, 51, 53, 55, 57, 59, 61, -1, 63, -1, 65, -1, 67, 69, 71, 73, -1, -1, -1, -1, -1, -1, -1, -1, -1, -1, -1, -1, -1, -1, -1, -1, -1, -1, -1, -1, -1, -1, -1, -1, -1, -1, -1, -1, -1, -1], "loss_changes": [29.08848, 13.068372, 12.382875, 10.627567, 6.010333, 10.181089, 3.9385262, 6.2718077, 6.2772007, 8.305252, 6.3924117, 5.474838, 3.0809755, 5.208926, 3.0974236, 3.3527107, 0.0, 4.0734596, 0.0, 5.7473154, 5.496813, 0.0, 2.6441202, 7.4713707, 5.842471, 3.0150533, 0.7207699, 0.27926755, 0.0, 0.0, 3.1594696, 0.86008364, 0.42620182, 5.0837927, 4.4730453, 4.5042696, 0.0, 4.667341, 0.0, 1.4790468, 0.0, 2.186568, 2.7064247, 2.347428, 6.653917, 0.0, 0.0, 0.0, 0.0, 0.0, 0.0, 0.0, 0.0, 0.0, 0.0, 0.0, 0.0, 0.0, 0.0, 0.0, 0.0, 0.0, 0.0, 0.0, 0.0, 0.0, 0.0, 0.0, 0.0, 0.0, 0.0, 0.0, 0.0, 0.0, 0.0], "parents": [2147483647, 0, 0, 1, 1, 2, 2, 3, 3, 4, 4, 5, 5, 6, 6, 7, 7, 8, 8, 9, 9, 10, 10, 11, 11, 12, 12, 13, 13, 14, 14, 15, 15, 17, 17, 19, 19, 20, 20, 22, 22, 23, 23, 24, 24, 25, 25, 26, 26, 27, 27, 30, 30, 31, 31, 32, 32, 33, 33, 34, 34, 35, 35, 37, 37, 39, 39, 41, 41, 42, 42, 43, 43, 44, 44], "right_children": [2, 4, 6, 8, 10, 12, 14, 16, 18, 20, 22, 24, 26, 28, 30, 32, -1, 34, -1, 36, 38, -1, 40, 42, 44, 46, 48, 50, -1, -1, 52, 54, 56, 58, 60, 62, -1, 64, -1, 66, -1, 68, 70, 72, 74, -1, -1, -1, -1, -1, -1, -1, -1, -1, -1, -1, -1, -1, -1, -1, -1, -1, -1, -1, -1, -1, -1, -1, -1, -1, -1, -1, -1, -1, -1], "split_conditions": [0.17593129, -0.49223226, 0.12535504, -0.93462193, 2.2306979, 0.99900687, -1.2676215, 0.6758553, 1.8317297, -0.4784922, -0.31253418, -0.7115506, -0.21543634, -0.14359923, -0.8575771, -0.98374814, 0.0426805, -0.80453783, -0.044492092, 1.8805398, 2.0717258, -0.038703017, -0.19714175, -0.8697357, -1.2687373, 1.5740308, 0.23170304, -0.45311323, -0.049097084, 0.007656777, -0.39767295, 0.1450928, -1.1020399, 0.13271753, 0.89206594, 1.7084624, 0.046566818, -1.3310266, -0.05549511, -0.2574621, -0.010263312, -0.112803705, 0.8117615, 2.171852, 0.7590225, -0.044333328, 0.038662914, 0.0061177076, 0.06258311, 0.052657593, 0.0067710676, 0.008869475, -0.06644571, 0.027496336, -0.017189106, -0.010592384, -0.06795533, -0.044879597, 0.032539263, 0.05042079, -0.010574899, -0.04254312, 0.03386526, -0.022679206, 0.019550782, 0.007632033, 0.064734586, 0.046664976, -0.018222842, -0.06246778, 0.0051157703, -0.058222808, 0.010802028, 0.053591497, -0.017667474], "split_indices": [172, 139, 189, 128, 243, 163, 127, 119, 119, 181, 179, 149, 188, 183, 187, 137, 0, 130, 0, 177, 231, 0, 183, 118, 129, 58, 128, 177, 0, 0, 126, 145, 118, 193, 132, 142, 0, 122, 0, 150, 0, 138, 207, 141, 133, 0, 0, 0, 0, 0, 0, 0, 0, 0, 0, 0, 0, 0, 0, 0, 0, 0, 0, 0, 0, 0, 0, 0, 0, 0, 0, 0, 0, 0, 0], "split_type": [0, 0, 0, 0, 0, 0, 0, 0, 0, 0, 0, 0, 0, 0, 0, 0, 0, 0, 0, 0, 0, 0, 0, 0, 0, 0, 0, 0, 0, 0, 0, 0, 0, 0, 0, 0, 0, 0, 0, 0, 0, 0, 0, 0, 0, 0, 0, 0, 0, 0, 0, 0, 0, 0, 0, 0, 0, 0, 0, 0, 0, 0, 0, 0, 0, 0, 0, 0, 0, 0, 0, 0, 0, 0, 0], "sum_hessian": [211.51192, 140.85109, 70.66081, 63.136612, 77.714485, 41.358864, 29.30195, 9.325519, 53.811092, 65.58789, 12.126593, 33.022915, 8.335946, 4.5451427, 24.75681, 7.122071, 2.2034483, 52.419445, 1.3916502, 23.93256, 41.65533, 1.9329231, 10.19367, 17.079292, 15.943624, 2.391925, 5.9440207, 2.2202997, 2.324843, 1.3323271, 23.424482, 2.2722533, 4.8498178, 7.165535, 45.25391, 22.557478, 1.3750821, 39.33368, 2.321653, 8.830301, 1.3633683, 3.4294217, 13.649871, 4.689586, 11.254038, 1.3725283, 1.0193968, 1.1099241, 4.834097, 1.0782101, 1.1420896, 1.123712, 22.30077, 1.2432863, 1.0289671, 1.0327096, 3.817108, 2.316171, 4.8493643, 42.505333, 2.7485743, 21.251827, 1.3056495, 7.1631985, 32.17048, 1.906681, 6.9236207, 2.018035, 1.4113865, 12.296815, 1.3530557, 3.529374, 1.1602125, 5.784288, 5.4697495], "tree_param": {"num_deleted": "0", "num_feature": "246", "num_nodes": "75", "size_leaf_vector": "1"}}, {"base_weights": [-0.014031847, 0.3078389, -0.34690613, -0.50692475, 0.44665447, 0.30668178, -0.506142, 0.30418956, -0.7921886, 0.6835455, 0.1056347, -0.18119378, 1.1341906, -0.2321418, -0.9069638, 0.046639036, -0.19866514, -1.0163187, 0.024378786, 0.75832516, -0.6053268, 0.33406818, -0.83672065, 0.84950155, -0.8090483, 0.06549615, -0.0, -1.0275905, -0.026825214, -1.1244439, 0.2898051, 0.025367046, -0.043554544, -1.1704028, -0.0012078022, 0.82924926, -0.47175443, 0.0023431645, -0.047192287, 0.5762707, -0.30123913, -0.0690058, 0.40537807, 0.056648947, -0.0, -1.1548877, -0.0, -1.2196838, 0.01140768, -0.5435429, 0.31692818, 0.006936154, -1.2218919, 0.047438864, -0.3542831, -0.0058726845, -0.06491148, -0.0121219605, 0.045076523, -0.056927603, 0.019647475, 0.03801453, -0.02564772, -0.041076083, 0.05236602, -0.01062609, 0.043377515, -0.06374106, -0.010197733, -0.040082492, 0.03349398, -0.066463016, -0.006007256, 0.0151253445, -0.042991493, 0.028534219, -0.037751503, -0.06310934, -0.0030625912, 0.017940303, -0.042466946], "categories": [], "categories_nodes": [], "categories_segments": [], "categories_sizes": [], "default_left": [0, 0, 0, 0, 0, 0, 0, 0, 0, 0, 0, 0, 0, 0, 0, 0, 0, 0, 0, 0, 0, 0, 0, 0, 0, 0, 0, 0, 0, 0, 0, 0, 0, 0, 0, 0, 0, 0, 0, 0, 0, 0, 0, 0, 0, 0, 0, 0, 0, 0, 0, 0, 0, 0, 0, 0, 0, 0, 0, 0, 0, 0, 0, 0, 0, 0, 0, 0, 0, 0, 0, 0, 0, 0, 0, 0, 0, 0, 0, 0, 0], "id": 17, "left_children": [1, 3, 5, 7, 9, 11, 13, 15, 17, 19, 21, 23, 25, 27, 29, -1, 31, 33, -1, 35, 37, 39, 41, 43, 45, -1, -1, 47, 49, 51, 53, -1, -1, 55, -1, 57, 59, -1, -1, 61, 63, -1, 65, -1, -1, 67, 69, 71, -1, 73, 75, -1, 77, -1, 79, -1, -1, -1, -1, -1, -1, -1, -1, -1, -1, -1, -1, -1, -1, -1, -1, -1, -1, -1, -1, -1, -1, -1, -1, -1, -1], "loss_changes": [22.54921, 12.305365, 10.954863, 3.9729242, 7.2755795, 8.694491, 8.8773365, 1.7674274, 4.032016, 5.668577, 8.633159, 9.656117, 1.5104351, 8.238409, 9.135679, 0.0, 2.0866065, 1.4919844, 0.0, 4.915951, 0.89299273, 5.159305, 5.9330254, 1.4431233, 2.5966783, 0.0, 0.0, 2.8835497, 7.6318, 3.804123, 2.8913443, 0.0, 0.0, 0.94094086, 0.0, 4.087044, 2.462478, 0.0, 0.0, 5.1823997, 7.4588237, 0.0, 1.1340106, 0.0, 0.0, 0.32848263, 2.5385659, 0.8083372, 0.0, 4.921369, 7.3918076, 0.0, 1.0423737, 0.0, 1.6335098, 0.0, 0.0, 0.0, 0.0, 0.0, 0.0, 0.0, 0.0, 0.0, 0.0, 0.0, 0.0, 0.0, 0.0, 0.0, 0.0, 0.0, 0.0, 0.0, 0.0, 0.0, 0.0, 0.0, 0.0, 0.0, 0.0], "parents": [2147483647, 0, 0, 1, 1, 2, 2, 3, 3, 4, 4, 5, 5, 6, 6, 7, 7, 8, 8, 9, 9, 10, 10, 11, 11, 12, 12, 13, 13, 14, 14, 16, 16, 17, 17, 19, 19, 20, 20, 21, 21, 22, 22, 23, 23, 24, 24, 27, 27, 28, 28, 29, 29, 30, 30, 33, 33, 35, 35, 36, 36, 39, 39, 40, 40, 42, 42, 45, 45, 46, 46, 47, 47, 49, 49, 50, 50, 52, 52, 54, 54], "right_children": [2, 4, 6, 8, 10, 12, 14, 16, 18, 20, 22, 24, 26, 28, 30, -1, 32, 34, -1, 36, 38, 40, 42, 44, 46, -1, -1, 48, 50, 52, 54, -1, -1, 56, -1, 58, 60, -1, -1, 62, 64, -1, 66, -1, -1, 68, 70, 72, -1, 74, 76, -1, 78, -1, 80, -1, -1, -1, -1, -1, -1, -1, -1, -1, -1, -1, -1, -1, -1, -1, -1, -1, -1, -1, -1, -1, -1, -1, -1, -1, -1], "split_conditions": [-0.1737617, -0.81786287, -0.4188976, 0.41298634, -0.49223226, 1.5423304, -0.17168461, 1.0776343, 